digraph Tree {
node [shape=box, style="filled, rounded", color="black", fontname="helvetica"] ;
edge [fontname="helvetica"] ;
0 [label=<ImportantMatches_Technical &le; 9.5<br/>gini = 0.375<br/>samples = 199905<br/>value = [149905, 50000]<br/>class = 0>, fillcolor="#eeab7b"] ;
1 [label=<Versatility_Behavioral &le; 9.5<br/>gini = 0.21<br/>samples = 128202<br/>value = [112938, 15264]<br/>class = 0>, fillcolor="#e99254"] ;
0 -> 1 [labeldistance=2.5, labelangle=45, headlabel="True"] ;
2 [label=<Stamina_Technical &le; 10.5<br/>gini = 0.152<br/>samples = 105802<br/>value = [97048, 8754]<br/>class = 0>, fillcolor="#e78c4b"] ;
1 -> 2 ;
3 [label=<InjuryProness_Technical &le; 12.5<br/>gini = 0.111<br/>samples = 77961<br/>value = [73367, 4594]<br/>class = 0>, fillcolor="#e78945"] ;
2 -> 3 ;
4 [label=<Sportsmanship_Behavioral &le; 8.5<br/>gini = 0.107<br/>samples = 76865<br/>value = [72522, 4343]<br/>class = 0>, fillcolor="#e78945"] ;
3 -> 4 ;
5 [label=<Loyalty_Behavioral &le; 5.5<br/>gini = 0.039<br/>samples = 18652<br/>value = [18280, 372]<br/>class = 0>, fillcolor="#e6843d"] ;
4 -> 5 ;
6 [label=<Strength_Technical &le; 9.5<br/>gini = 0.282<br/>samples = 288<br/>value = [239, 49]<br/>class = 0>, fillcolor="#ea9b62"] ;
5 -> 6 ;
7 [label=<Pressure_Behavioral &le; 4.5<br/>gini = 0.042<br/>samples = 186<br/>value = [182, 4]<br/>class = 0>, fillcolor="#e6843d"] ;
6 -> 7 ;
8 [label=<Professional_Behavioral &le; 11.0<br/>gini = 0.308<br/>samples = 21<br/>value = [17, 4]<br/>class = 0>, fillcolor="#eb9f68"] ;
7 -> 8 ;
9 [label=<gini = 0.0<br/>samples = 16<br/>value = [16, 0]<br/>class = 0>, fillcolor="#e58139"] ;
8 -> 9 ;
10 [label=<Communication_Behavioral &le; 2.5<br/>gini = 0.32<br/>samples = 5<br/>value = [1, 4]<br/>class = 1>, fillcolor="#6ab6ec"] ;
8 -> 10 ;
11 [label=<gini = 0.0<br/>samples = 1<br/>value = [1, 0]<br/>class = 0>, fillcolor="#e58139"] ;
10 -> 11 ;
12 [label=<gini = 0.0<br/>samples = 4<br/>value = [0, 4]<br/>class = 1>, fillcolor="#399de5"] ;
10 -> 12 ;
13 [label=<gini = 0.0<br/>samples = 165<br/>value = [165, 0]<br/>class = 0>, fillcolor="#e58139"] ;
7 -> 13 ;
14 [label=<Flair_Behavioral &le; 13.5<br/>gini = 0.493<br/>samples = 102<br/>value = [57, 45]<br/>class = 0>, fillcolor="#fae4d5"] ;
6 -> 14 ;
15 [label=<Professional_Behavioral &le; 11.5<br/>gini = 0.391<br/>samples = 75<br/>value = [55, 20]<br/>class = 0>, fillcolor="#eeaf81"] ;
14 -> 15 ;
16 [label=<Jumping_Technical &le; 16.5<br/>gini = 0.115<br/>samples = 49<br/>value = [46, 3]<br/>class = 0>, fillcolor="#e78946"] ;
15 -> 16 ;
17 [label=<gini = 0.0<br/>samples = 46<br/>value = [46, 0]<br/>class = 0>, fillcolor="#e58139"] ;
16 -> 17 ;
18 [label=<gini = 0.0<br/>samples = 3<br/>value = [0, 3]<br/>class = 1>, fillcolor="#399de5"] ;
16 -> 18 ;
19 [label=<Decisions_Behavioral &le; 10.0<br/>gini = 0.453<br/>samples = 26<br/>value = [9, 17]<br/>class = 1>, fillcolor="#a2d1f3"] ;
15 -> 19 ;
20 [label=<gini = 0.0<br/>samples = 8<br/>value = [8, 0]<br/>class = 0>, fillcolor="#e58139"] ;
19 -> 20 ;
21 [label=<Marking_Technical &le; 3.5<br/>gini = 0.105<br/>samples = 18<br/>value = [1, 17]<br/>class = 1>, fillcolor="#45a3e7"] ;
19 -> 21 ;
22 [label=<gini = 0.0<br/>samples = 1<br/>value = [1, 0]<br/>class = 0>, fillcolor="#e58139"] ;
21 -> 22 ;
23 [label=<gini = 0.0<br/>samples = 17<br/>value = [0, 17]<br/>class = 1>, fillcolor="#399de5"] ;
21 -> 23 ;
24 [label=<Sportsmanship_Behavioral &le; 5.5<br/>gini = 0.137<br/>samples = 27<br/>value = [2, 25]<br/>class = 1>, fillcolor="#49a5e7"] ;
14 -> 24 ;
25 [label=<gini = 0.0<br/>samples = 2<br/>value = [2, 0]<br/>class = 0>, fillcolor="#e58139"] ;
24 -> 25 ;
26 [label=<gini = 0.0<br/>samples = 25<br/>value = [0, 25]<br/>class = 1>, fillcolor="#399de5"] ;
24 -> 26 ;
27 [label=<Concentration_Behavioral &le; 10.5<br/>gini = 0.035<br/>samples = 18364<br/>value = [18041, 323]<br/>class = 0>, fillcolor="#e5833d"] ;
5 -> 27 ;
28 [label=<Sportsmanship_Behavioral &le; 7.5<br/>gini = 0.028<br/>samples = 16755<br/>value = [16514, 241]<br/>class = 0>, fillcolor="#e5833c"] ;
27 -> 28 ;
29 [label=<Longthrows_Technical &le; 13.5<br/>gini = 0.02<br/>samples = 12820<br/>value = [12692, 128]<br/>class = 0>, fillcolor="#e5823b"] ;
28 -> 29 ;
30 [label=<TendencyToPunch_Technical &le; 9.5<br/>gini = 0.019<br/>samples = 12808<br/>value = [12684, 124]<br/>class = 0>, fillcolor="#e5823b"] ;
29 -> 30 ;
31 [label=<Pressure_Behavioral &le; 6.5<br/>gini = 0.017<br/>samples = 12635<br/>value = [12527, 108]<br/>class = 0>, fillcolor="#e5823b"] ;
30 -> 31 ;
32 [label=<Anticipation_Behavioral &le; 10.5<br/>gini = 0.126<br/>samples = 252<br/>value = [235, 17]<br/>class = 0>, fillcolor="#e78a47"] ;
31 -> 32 ;
33 [label=<Decisions_Behavioral &le; 13.5<br/>gini = 0.073<br/>samples = 238<br/>value = [229, 9]<br/>class = 0>, fillcolor="#e68641"] ;
32 -> 33 ;
34 [label=<Agility_Technical &le; 3.0<br/>gini = 0.017<br/>samples = 228<br/>value = [226, 2]<br/>class = 0>, fillcolor="#e5823b"] ;
33 -> 34 ;
35 [label=<LeftFoot_Technical &le; 10.5<br/>gini = 0.444<br/>samples = 3<br/>value = [1, 2]<br/>class = 1>, fillcolor="#9ccef2"] ;
34 -> 35 ;
36 [label=<gini = 0.0<br/>samples = 1<br/>value = [1, 0]<br/>class = 0>, fillcolor="#e58139"] ;
35 -> 36 ;
37 [label=<gini = 0.0<br/>samples = 2<br/>value = [0, 2]<br/>class = 1>, fillcolor="#399de5"] ;
35 -> 37 ;
38 [label=<gini = 0.0<br/>samples = 225<br/>value = [225, 0]<br/>class = 0>, fillcolor="#e58139"] ;
34 -> 38 ;
39 [label=<Consistency_Behavioral &le; 7.5<br/>gini = 0.42<br/>samples = 10<br/>value = [3, 7]<br/>class = 1>, fillcolor="#8ec7f0"] ;
33 -> 39 ;
40 [label=<gini = 0.0<br/>samples = 3<br/>value = [3, 0]<br/>class = 0>, fillcolor="#e58139"] ;
39 -> 40 ;
41 [label=<gini = 0.0<br/>samples = 7<br/>value = [0, 7]<br/>class = 1>, fillcolor="#399de5"] ;
39 -> 41 ;
42 [label=<Dribbling_Technical &le; 7.0<br/>gini = 0.49<br/>samples = 14<br/>value = [6, 8]<br/>class = 1>, fillcolor="#cee6f8"] ;
32 -> 42 ;
43 [label=<gini = 0.0<br/>samples = 8<br/>value = [0, 8]<br/>class = 1>, fillcolor="#399de5"] ;
42 -> 43 ;
44 [label=<gini = 0.0<br/>samples = 6<br/>value = [6, 0]<br/>class = 0>, fillcolor="#e58139"] ;
42 -> 44 ;
45 [label=<Dirtiness_Behavioral &le; 12.5<br/>gini = 0.015<br/>samples = 12383<br/>value = [12292, 91]<br/>class = 0>, fillcolor="#e5823a"] ;
31 -> 45 ;
46 [label=<Strength_Technical &le; 14.5<br/>gini = 0.013<br/>samples = 12135<br/>value = [12058, 77]<br/>class = 0>, fillcolor="#e5823a"] ;
45 -> 46 ;
47 [label=<Acceleration_Technical &le; 4.5<br/>gini = 0.012<br/>samples = 12095<br/>value = [12022, 73]<br/>class = 0>, fillcolor="#e5823a"] ;
46 -> 47 ;
48 [label=<Agility_Technical &le; 4.5<br/>gini = 0.15<br/>samples = 49<br/>value = [45, 4]<br/>class = 0>, fillcolor="#e78c4b"] ;
47 -> 48 ;
49 [label=<Dirtiness_Behavioral &le; 5.5<br/>gini = 0.444<br/>samples = 6<br/>value = [2, 4]<br/>class = 1>, fillcolor="#9ccef2"] ;
48 -> 49 ;
50 [label=<gini = 0.0<br/>samples = 4<br/>value = [0, 4]<br/>class = 1>, fillcolor="#399de5"] ;
49 -> 50 ;
51 [label=<gini = 0.0<br/>samples = 2<br/>value = [2, 0]<br/>class = 0>, fillcolor="#e58139"] ;
49 -> 51 ;
52 [label=<gini = 0.0<br/>samples = 43<br/>value = [43, 0]<br/>class = 0>, fillcolor="#e58139"] ;
48 -> 52 ;
53 [label=<Jumping_Technical &le; 2.5<br/>gini = 0.011<br/>samples = 12046<br/>value = [11977, 69]<br/>class = 0>, fillcolor="#e5823a"] ;
47 -> 53 ;
54 [label=<Pace_Technical &le; 7.5<br/>gini = 0.054<br/>samples = 502<br/>value = [488, 14]<br/>class = 0>, fillcolor="#e6853f"] ;
53 -> 54 ;
55 [label=<OffTheBall_Technical &le; 11.0<br/>gini = 0.5<br/>samples = 18<br/>value = [9, 9]<br/>class = 0>, fillcolor="#ffffff"] ;
54 -> 55 ;
56 [label=<gini = 0.0<br/>samples = 9<br/>value = [9, 0]<br/>class = 0>, fillcolor="#e58139"] ;
55 -> 56 ;
57 [label=<gini = 0.0<br/>samples = 9<br/>value = [0, 9]<br/>class = 1>, fillcolor="#399de5"] ;
55 -> 57 ;
58 [label=<Crossing_Technical &le; 12.5<br/>gini = 0.02<br/>samples = 484<br/>value = [479, 5]<br/>class = 0>, fillcolor="#e5823b"] ;
54 -> 58 ;
59 [label=<Heading_Technical &le; 13.5<br/>gini = 0.005<br/>samples = 431<br/>value = [430, 1]<br/>class = 0>, fillcolor="#e58139"] ;
58 -> 59 ;
60 [label=<gini = 0.0<br/>samples = 414<br/>value = [414, 0]<br/>class = 0>, fillcolor="#e58139"] ;
59 -> 60 ;
61 [label=<Dirtiness_Behavioral &le; 4.5<br/>gini = 0.111<br/>samples = 17<br/>value = [16, 1]<br/>class = 0>, fillcolor="#e78945"] ;
59 -> 61 ;
62 [label=<gini = 0.0<br/>samples = 1<br/>value = [0, 1]<br/>class = 1>, fillcolor="#399de5"] ;
61 -> 62 ;
63 [label=<gini = 0.0<br/>samples = 16<br/>value = [16, 0]<br/>class = 0>, fillcolor="#e58139"] ;
61 -> 63 ;
64 [label=<Heading_Technical &le; 1.5<br/>gini = 0.14<br/>samples = 53<br/>value = [49, 4]<br/>class = 0>, fillcolor="#e78b49"] ;
58 -> 64 ;
65 [label=<OneOnOnes_Technical &le; 1.5<br/>gini = 0.444<br/>samples = 6<br/>value = [2, 4]<br/>class = 1>, fillcolor="#9ccef2"] ;
64 -> 65 ;
66 [label=<gini = 0.0<br/>samples = 4<br/>value = [0, 4]<br/>class = 1>, fillcolor="#399de5"] ;
65 -> 66 ;
67 [label=<gini = 0.0<br/>samples = 2<br/>value = [2, 0]<br/>class = 0>, fillcolor="#e58139"] ;
65 -> 67 ;
68 [label=<gini = 0.0<br/>samples = 47<br/>value = [47, 0]<br/>class = 0>, fillcolor="#e58139"] ;
64 -> 68 ;
69 [label=<Temperament_Behavioral &le; 11.5<br/>gini = 0.009<br/>samples = 11544<br/>value = [11489, 55]<br/>class = 0>, fillcolor="#e5823a"] ;
53 -> 69 ;
70 [label=<Finishing_Technical &le; 1.5<br/>gini = 0.019<br/>samples = 4831<br/>value = [4784, 47]<br/>class = 0>, fillcolor="#e5823b"] ;
69 -> 70 ;
71 [label=<Crossing_Technical &le; 7.5<br/>gini = 0.069<br/>samples = 641<br/>value = [618, 23]<br/>class = 0>, fillcolor="#e68640"] ;
70 -> 71 ;
72 [label=<Vision_Behavioral &le; 1.5<br/>gini = 0.042<br/>samples = 611<br/>value = [598, 13]<br/>class = 0>, fillcolor="#e6843d"] ;
71 -> 72 ;
73 [label=<Concentration_Behavioral &le; 9.5<br/>gini = 0.179<br/>samples = 111<br/>value = [100, 11]<br/>class = 0>, fillcolor="#e88f4f"] ;
72 -> 73 ;
74 [label=<Reflexes_Technical &le; 3.5<br/>gini = 0.06<br/>samples = 97<br/>value = [94, 3]<br/>class = 0>, fillcolor="#e6853f"] ;
73 -> 74 ;
75 [label=<gini = 0.0<br/>samples = 91<br/>value = [91, 0]<br/>class = 0>, fillcolor="#e58139"] ;
74 -> 75 ;
76 [label=<FirstTouch_Technical &le; 4.0<br/>gini = 0.5<br/>samples = 6<br/>value = [3, 3]<br/>class = 0>, fillcolor="#ffffff"] ;
74 -> 76 ;
77 [label=<gini = 0.0<br/>samples = 3<br/>value = [3, 0]<br/>class = 0>, fillcolor="#e58139"] ;
76 -> 77 ;
78 [label=<gini = 0.0<br/>samples = 3<br/>value = [0, 3]<br/>class = 1>, fillcolor="#399de5"] ;
76 -> 78 ;
79 [label=<ImportantMatches_Technical &le; 8.5<br/>gini = 0.49<br/>samples = 14<br/>value = [6, 8]<br/>class = 1>, fillcolor="#cee6f8"] ;
73 -> 79 ;
80 [label=<gini = 0.0<br/>samples = 6<br/>value = [6, 0]<br/>class = 0>, fillcolor="#e58139"] ;
79 -> 80 ;
81 [label=<gini = 0.0<br/>samples = 8<br/>value = [0, 8]<br/>class = 1>, fillcolor="#399de5"] ;
79 -> 81 ;
82 [label=<Determination_Behavioral &le; 1.5<br/>gini = 0.008<br/>samples = 500<br/>value = [498, 2]<br/>class = 0>, fillcolor="#e5823a"] ;
72 -> 82 ;
83 [label=<Composure_Behavioral &le; 2.5<br/>gini = 0.133<br/>samples = 28<br/>value = [26, 2]<br/>class = 0>, fillcolor="#e78b48"] ;
82 -> 83 ;
84 [label=<gini = 0.0<br/>samples = 2<br/>value = [0, 2]<br/>class = 1>, fillcolor="#399de5"] ;
83 -> 84 ;
85 [label=<gini = 0.0<br/>samples = 26<br/>value = [26, 0]<br/>class = 0>, fillcolor="#e58139"] ;
83 -> 85 ;
86 [label=<gini = 0.0<br/>samples = 472<br/>value = [472, 0]<br/>class = 0>, fillcolor="#e58139"] ;
82 -> 86 ;
87 [label=<Corners_Technical &le; 3.5<br/>gini = 0.444<br/>samples = 30<br/>value = [20, 10]<br/>class = 0>, fillcolor="#f2c09c"] ;
71 -> 87 ;
88 [label=<gini = 0.0<br/>samples = 10<br/>value = [0, 10]<br/>class = 1>, fillcolor="#399de5"] ;
87 -> 88 ;
89 [label=<gini = 0.0<br/>samples = 20<br/>value = [20, 0]<br/>class = 0>, fillcolor="#e58139"] ;
87 -> 89 ;
90 [label=<Pressure_Behavioral &le; 13.5<br/>gini = 0.011<br/>samples = 4190<br/>value = [4166, 24]<br/>class = 0>, fillcolor="#e5823a"] ;
70 -> 90 ;
91 [label=<Adaptability_Behavioral &le; 8.5<br/>gini = 0.008<br/>samples = 4013<br/>value = [3997, 16]<br/>class = 0>, fillcolor="#e5823a"] ;
90 -> 91 ;
92 [label=<Pace_Technical &le; 13.5<br/>gini = 0.042<br/>samples = 741<br/>value = [725, 16]<br/>class = 0>, fillcolor="#e6843d"] ;
91 -> 92 ;
93 [label=<Marking_Technical &le; 13.5<br/>gini = 0.009<br/>samples = 634<br/>value = [631, 3]<br/>class = 0>, fillcolor="#e5823a"] ;
92 -> 93 ;
94 [label=<gini = 0.0<br/>samples = 622<br/>value = [622, 0]<br/>class = 0>, fillcolor="#e58139"] ;
93 -> 94 ;
95 [label=<Ambition_Behavioral &le; 12.5<br/>gini = 0.375<br/>samples = 12<br/>value = [9, 3]<br/>class = 0>, fillcolor="#eeab7b"] ;
93 -> 95 ;
96 [label=<gini = 0.0<br/>samples = 9<br/>value = [9, 0]<br/>class = 0>, fillcolor="#e58139"] ;
95 -> 96 ;
97 [label=<gini = 0.0<br/>samples = 3<br/>value = [0, 3]<br/>class = 1>, fillcolor="#399de5"] ;
95 -> 97 ;
98 [label=<Corners_Technical &le; 3.5<br/>gini = 0.213<br/>samples = 107<br/>value = [94, 13]<br/>class = 0>, fillcolor="#e99254"] ;
92 -> 98 ;
99 [label=<AerialAbility_Technical &le; 2.5<br/>gini = 0.472<br/>samples = 21<br/>value = [8, 13]<br/>class = 1>, fillcolor="#b3d9f5"] ;
98 -> 99 ;
100 [label=<gini = 0.0<br/>samples = 7<br/>value = [7, 0]<br/>class = 0>, fillcolor="#e58139"] ;
99 -> 100 ;
101 [label=<LongShots_Technical &le; 5.0<br/>gini = 0.133<br/>samples = 14<br/>value = [1, 13]<br/>class = 1>, fillcolor="#48a5e7"] ;
99 -> 101 ;
102 [label=<gini = 0.0<br/>samples = 1<br/>value = [1, 0]<br/>class = 0>, fillcolor="#e58139"] ;
101 -> 102 ;
103 [label=<gini = 0.0<br/>samples = 13<br/>value = [0, 13]<br/>class = 1>, fillcolor="#399de5"] ;
101 -> 103 ;
104 [label=<gini = 0.0<br/>samples = 86<br/>value = [86, 0]<br/>class = 0>, fillcolor="#e58139"] ;
98 -> 104 ;
105 [label=<gini = 0.0<br/>samples = 3272<br/>value = [3272, 0]<br/>class = 0>, fillcolor="#e58139"] ;
91 -> 105 ;
106 [label=<Passing_Technical &le; 2.5<br/>gini = 0.086<br/>samples = 177<br/>value = [169, 8]<br/>class = 0>, fillcolor="#e68742"] ;
90 -> 106 ;
107 [label=<Anticipation_Behavioral &le; 8.5<br/>gini = 0.435<br/>samples = 25<br/>value = [17, 8]<br/>class = 0>, fillcolor="#f1bc96"] ;
106 -> 107 ;
108 [label=<gini = 0.0<br/>samples = 17<br/>value = [17, 0]<br/>class = 0>, fillcolor="#e58139"] ;
107 -> 108 ;
109 [label=<gini = 0.0<br/>samples = 8<br/>value = [0, 8]<br/>class = 1>, fillcolor="#399de5"] ;
107 -> 109 ;
110 [label=<gini = 0.0<br/>samples = 152<br/>value = [152, 0]<br/>class = 0>, fillcolor="#e58139"] ;
106 -> 110 ;
111 [label=<Dirtiness_Behavioral &le; 4.5<br/>gini = 0.002<br/>samples = 6713<br/>value = [6705, 8]<br/>class = 0>, fillcolor="#e58139"] ;
69 -> 111 ;
112 [label=<OffTheBall_Technical &le; 12.5<br/>gini = 0.019<br/>samples = 613<br/>value = [607, 6]<br/>class = 0>, fillcolor="#e5823b"] ;
111 -> 112 ;
113 [label=<Composure_Behavioral &le; 1.5<br/>gini = 0.007<br/>samples = 578<br/>value = [576, 2]<br/>class = 0>, fillcolor="#e5813a"] ;
112 -> 113 ;
114 [label=<Consistency_Behavioral &le; 9.0<br/>gini = 0.278<br/>samples = 12<br/>value = [10, 2]<br/>class = 0>, fillcolor="#ea9a61"] ;
113 -> 114 ;
115 [label=<gini = 0.0<br/>samples = 10<br/>value = [10, 0]<br/>class = 0>, fillcolor="#e58139"] ;
114 -> 115 ;
116 [label=<gini = 0.0<br/>samples = 2<br/>value = [0, 2]<br/>class = 1>, fillcolor="#399de5"] ;
114 -> 116 ;
117 [label=<gini = 0.0<br/>samples = 566<br/>value = [566, 0]<br/>class = 0>, fillcolor="#e58139"] ;
113 -> 117 ;
118 [label=<Stamina_Technical &le; 4.5<br/>gini = 0.202<br/>samples = 35<br/>value = [31, 4]<br/>class = 0>, fillcolor="#e89153"] ;
112 -> 118 ;
119 [label=<gini = 0.0<br/>samples = 4<br/>value = [0, 4]<br/>class = 1>, fillcolor="#399de5"] ;
118 -> 119 ;
120 [label=<gini = 0.0<br/>samples = 31<br/>value = [31, 0]<br/>class = 0>, fillcolor="#e58139"] ;
118 -> 120 ;
121 [label=<Passing_Technical &le; 12.5<br/>gini = 0.001<br/>samples = 6100<br/>value = [6098, 2]<br/>class = 0>, fillcolor="#e58139"] ;
111 -> 121 ;
122 [label=<gini = 0.0<br/>samples = 5697<br/>value = [5697, 0]<br/>class = 0>, fillcolor="#e58139"] ;
121 -> 122 ;
123 [label=<OffTheBall_Technical &le; 2.5<br/>gini = 0.01<br/>samples = 403<br/>value = [401, 2]<br/>class = 0>, fillcolor="#e5823a"] ;
121 -> 123 ;
124 [label=<Marking_Technical &le; 8.5<br/>gini = 0.346<br/>samples = 9<br/>value = [7, 2]<br/>class = 0>, fillcolor="#eca572"] ;
123 -> 124 ;
125 [label=<gini = 0.0<br/>samples = 7<br/>value = [7, 0]<br/>class = 0>, fillcolor="#e58139"] ;
124 -> 125 ;
126 [label=<gini = 0.0<br/>samples = 2<br/>value = [0, 2]<br/>class = 1>, fillcolor="#399de5"] ;
124 -> 126 ;
127 [label=<gini = 0.0<br/>samples = 394<br/>value = [394, 0]<br/>class = 0>, fillcolor="#e58139"] ;
123 -> 127 ;
128 [label=<Pressure_Behavioral &le; 13.5<br/>gini = 0.18<br/>samples = 40<br/>value = [36, 4]<br/>class = 0>, fillcolor="#e88f4f"] ;
46 -> 128 ;
129 [label=<gini = 0.0<br/>samples = 36<br/>value = [36, 0]<br/>class = 0>, fillcolor="#e58139"] ;
128 -> 129 ;
130 [label=<gini = 0.0<br/>samples = 4<br/>value = [0, 4]<br/>class = 1>, fillcolor="#399de5"] ;
128 -> 130 ;
131 [label=<Determination_Behavioral &le; 1.5<br/>gini = 0.107<br/>samples = 248<br/>value = [234, 14]<br/>class = 0>, fillcolor="#e78945"] ;
45 -> 131 ;
132 [label=<Finishing_Technical &le; 10.0<br/>gini = 0.346<br/>samples = 9<br/>value = [2, 7]<br/>class = 1>, fillcolor="#72b9ec"] ;
131 -> 132 ;
133 [label=<gini = 0.0<br/>samples = 2<br/>value = [2, 0]<br/>class = 0>, fillcolor="#e58139"] ;
132 -> 133 ;
134 [label=<gini = 0.0<br/>samples = 7<br/>value = [0, 7]<br/>class = 1>, fillcolor="#399de5"] ;
132 -> 134 ;
135 [label=<Strength_Technical &le; 12.5<br/>gini = 0.057<br/>samples = 239<br/>value = [232, 7]<br/>class = 0>, fillcolor="#e6853f"] ;
131 -> 135 ;
136 [label=<gini = 0.0<br/>samples = 216<br/>value = [216, 0]<br/>class = 0>, fillcolor="#e58139"] ;
135 -> 136 ;
137 [label=<Anticipation_Behavioral &le; 5.5<br/>gini = 0.423<br/>samples = 23<br/>value = [16, 7]<br/>class = 0>, fillcolor="#f0b890"] ;
135 -> 137 ;
138 [label=<gini = 0.0<br/>samples = 5<br/>value = [0, 5]<br/>class = 1>, fillcolor="#399de5"] ;
137 -> 138 ;
139 [label=<Longthrows_Technical &le; 12.5<br/>gini = 0.198<br/>samples = 18<br/>value = [16, 2]<br/>class = 0>, fillcolor="#e89152"] ;
137 -> 139 ;
140 [label=<gini = 0.0<br/>samples = 16<br/>value = [16, 0]<br/>class = 0>, fillcolor="#e58139"] ;
139 -> 140 ;
141 [label=<gini = 0.0<br/>samples = 2<br/>value = [0, 2]<br/>class = 1>, fillcolor="#399de5"] ;
139 -> 141 ;
142 [label=<Stamina_Technical &le; 9.5<br/>gini = 0.168<br/>samples = 173<br/>value = [157, 16]<br/>class = 0>, fillcolor="#e88e4d"] ;
30 -> 142 ;
143 [label=<gini = 0.0<br/>samples = 142<br/>value = [142, 0]<br/>class = 0>, fillcolor="#e58139"] ;
142 -> 143 ;
144 [label=<OneOnOnes_Technical &le; 9.5<br/>gini = 0.499<br/>samples = 31<br/>value = [15, 16]<br/>class = 1>, fillcolor="#f3f9fd"] ;
142 -> 144 ;
145 [label=<Strength_Technical &le; 11.5<br/>gini = 0.266<br/>samples = 19<br/>value = [3, 16]<br/>class = 1>, fillcolor="#5eafea"] ;
144 -> 145 ;
146 [label=<gini = 0.0<br/>samples = 3<br/>value = [3, 0]<br/>class = 0>, fillcolor="#e58139"] ;
145 -> 146 ;
147 [label=<gini = 0.0<br/>samples = 16<br/>value = [0, 16]<br/>class = 1>, fillcolor="#399de5"] ;
145 -> 147 ;
148 [label=<gini = 0.0<br/>samples = 12<br/>value = [12, 0]<br/>class = 0>, fillcolor="#e58139"] ;
144 -> 148 ;
149 [label=<Pace_Technical &le; 8.5<br/>gini = 0.444<br/>samples = 12<br/>value = [8, 4]<br/>class = 0>, fillcolor="#f2c09c"] ;
29 -> 149 ;
150 [label=<gini = 0.0<br/>samples = 4<br/>value = [0, 4]<br/>class = 1>, fillcolor="#399de5"] ;
149 -> 150 ;
151 [label=<gini = 0.0<br/>samples = 8<br/>value = [8, 0]<br/>class = 0>, fillcolor="#e58139"] ;
149 -> 151 ;
152 [label=<Freekicks_Technical &le; 9.5<br/>gini = 0.056<br/>samples = 3935<br/>value = [3822, 113]<br/>class = 0>, fillcolor="#e6853f"] ;
28 -> 152 ;
153 [label=<Versatility_Behavioral &le; 2.5<br/>gini = 0.047<br/>samples = 3812<br/>value = [3721, 91]<br/>class = 0>, fillcolor="#e6843e"] ;
152 -> 153 ;
154 [label=<Pressure_Behavioral &le; 14.0<br/>gini = 0.473<br/>samples = 13<br/>value = [8, 5]<br/>class = 0>, fillcolor="#f5d0b5"] ;
153 -> 154 ;
155 [label=<gini = 0.0<br/>samples = 8<br/>value = [8, 0]<br/>class = 0>, fillcolor="#e58139"] ;
154 -> 155 ;
156 [label=<gini = 0.0<br/>samples = 5<br/>value = [0, 5]<br/>class = 1>, fillcolor="#399de5"] ;
154 -> 156 ;
157 [label=<Agility_Technical &le; 14.5<br/>gini = 0.044<br/>samples = 3799<br/>value = [3713, 86]<br/>class = 0>, fillcolor="#e6843e"] ;
153 -> 157 ;
158 [label=<Balance_Technical &le; 3.5<br/>gini = 0.039<br/>samples = 3733<br/>value = [3659, 74]<br/>class = 0>, fillcolor="#e6843d"] ;
157 -> 158 ;
159 [label=<Flair_Behavioral &le; 3.5<br/>gini = 0.127<br/>samples = 424<br/>value = [395, 29]<br/>class = 0>, fillcolor="#e78a48"] ;
158 -> 159 ;
160 [label=<Stamina_Technical &le; 8.5<br/>gini = 0.279<br/>samples = 143<br/>value = [119, 24]<br/>class = 0>, fillcolor="#ea9a61"] ;
159 -> 160 ;
161 [label=<Leadership_Behavioral &le; 13.5<br/>gini = 0.22<br/>samples = 135<br/>value = [118, 17]<br/>class = 0>, fillcolor="#e99356"] ;
160 -> 161 ;
162 [label=<Anticipation_Behavioral &le; 9.5<br/>gini = 0.169<br/>samples = 129<br/>value = [117, 12]<br/>class = 0>, fillcolor="#e88e4d"] ;
161 -> 162 ;
163 [label=<Pace_Technical &le; 4.5<br/>gini = 0.081<br/>samples = 118<br/>value = [113, 5]<br/>class = 0>, fillcolor="#e68742"] ;
162 -> 163 ;
164 [label=<Crossing_Technical &le; 1.5<br/>gini = 0.49<br/>samples = 7<br/>value = [3, 4]<br/>class = 1>, fillcolor="#cee6f8"] ;
163 -> 164 ;
165 [label=<gini = 0.0<br/>samples = 4<br/>value = [0, 4]<br/>class = 1>, fillcolor="#399de5"] ;
164 -> 165 ;
166 [label=<gini = 0.0<br/>samples = 3<br/>value = [3, 0]<br/>class = 0>, fillcolor="#e58139"] ;
164 -> 166 ;
167 [label=<InjuryProness_Technical &le; 3.5<br/>gini = 0.018<br/>samples = 111<br/>value = [110, 1]<br/>class = 0>, fillcolor="#e5823b"] ;
163 -> 167 ;
168 [label=<Leadership_Behavioral &le; 5.0<br/>gini = 0.375<br/>samples = 4<br/>value = [3, 1]<br/>class = 0>, fillcolor="#eeab7b"] ;
167 -> 168 ;
169 [label=<gini = 0.0<br/>samples = 3<br/>value = [3, 0]<br/>class = 0>, fillcolor="#e58139"] ;
168 -> 169 ;
170 [label=<gini = 0.0<br/>samples = 1<br/>value = [0, 1]<br/>class = 1>, fillcolor="#399de5"] ;
168 -> 170 ;
171 [label=<gini = 0.0<br/>samples = 107<br/>value = [107, 0]<br/>class = 0>, fillcolor="#e58139"] ;
167 -> 171 ;
172 [label=<Marking_Technical &le; 2.5<br/>gini = 0.463<br/>samples = 11<br/>value = [4, 7]<br/>class = 1>, fillcolor="#aad5f4"] ;
162 -> 172 ;
173 [label=<gini = 0.0<br/>samples = 7<br/>value = [0, 7]<br/>class = 1>, fillcolor="#399de5"] ;
172 -> 173 ;
174 [label=<gini = 0.0<br/>samples = 4<br/>value = [4, 0]<br/>class = 0>, fillcolor="#e58139"] ;
172 -> 174 ;
175 [label=<Determination_Behavioral &le; 3.5<br/>gini = 0.278<br/>samples = 6<br/>value = [1, 5]<br/>class = 1>, fillcolor="#61b1ea"] ;
161 -> 175 ;
176 [label=<gini = 0.0<br/>samples = 5<br/>value = [0, 5]<br/>class = 1>, fillcolor="#399de5"] ;
175 -> 176 ;
177 [label=<gini = 0.0<br/>samples = 1<br/>value = [1, 0]<br/>class = 0>, fillcolor="#e58139"] ;
175 -> 177 ;
178 [label=<PenaltyTaking_Technical &le; 2.0<br/>gini = 0.219<br/>samples = 8<br/>value = [1, 7]<br/>class = 1>, fillcolor="#55abe9"] ;
160 -> 178 ;
179 [label=<gini = 0.0<br/>samples = 7<br/>value = [0, 7]<br/>class = 1>, fillcolor="#399de5"] ;
178 -> 179 ;
180 [label=<gini = 0.0<br/>samples = 1<br/>value = [1, 0]<br/>class = 0>, fillcolor="#e58139"] ;
178 -> 180 ;
181 [label=<Jumping_Technical &le; 1.5<br/>gini = 0.035<br/>samples = 281<br/>value = [276, 5]<br/>class = 0>, fillcolor="#e5833d"] ;
159 -> 181 ;
182 [label=<Reflexes_Technical &le; 3.5<br/>gini = 0.34<br/>samples = 23<br/>value = [18, 5]<br/>class = 0>, fillcolor="#eca470"] ;
181 -> 182 ;
183 [label=<gini = 0.0<br/>samples = 18<br/>value = [18, 0]<br/>class = 0>, fillcolor="#e58139"] ;
182 -> 183 ;
184 [label=<gini = 0.0<br/>samples = 5<br/>value = [0, 5]<br/>class = 1>, fillcolor="#399de5"] ;
182 -> 184 ;
185 [label=<gini = 0.0<br/>samples = 258<br/>value = [258, 0]<br/>class = 0>, fillcolor="#e58139"] ;
181 -> 185 ;
186 [label=<Corners_Technical &le; 6.5<br/>gini = 0.027<br/>samples = 3309<br/>value = [3264, 45]<br/>class = 0>, fillcolor="#e5833c"] ;
158 -> 186 ;
187 [label=<Crossing_Technical &le; 9.5<br/>gini = 0.009<br/>samples = 2516<br/>value = [2504, 12]<br/>class = 0>, fillcolor="#e5823a"] ;
186 -> 187 ;
188 [label=<Bravery_Behavioral &le; 2.5<br/>gini = 0.005<br/>samples = 2447<br/>value = [2441, 6]<br/>class = 0>, fillcolor="#e58139"] ;
187 -> 188 ;
189 [label=<Strength_Technical &le; 10.5<br/>gini = 0.061<br/>samples = 192<br/>value = [186, 6]<br/>class = 0>, fillcolor="#e6853f"] ;
188 -> 189 ;
190 [label=<gini = 0.0<br/>samples = 179<br/>value = [179, 0]<br/>class = 0>, fillcolor="#e58139"] ;
189 -> 190 ;
191 [label=<Jumping_Technical &le; 4.0<br/>gini = 0.497<br/>samples = 13<br/>value = [7, 6]<br/>class = 0>, fillcolor="#fbede3"] ;
189 -> 191 ;
192 [label=<gini = 0.0<br/>samples = 6<br/>value = [0, 6]<br/>class = 1>, fillcolor="#399de5"] ;
191 -> 192 ;
193 [label=<gini = 0.0<br/>samples = 7<br/>value = [7, 0]<br/>class = 0>, fillcolor="#e58139"] ;
191 -> 193 ;
194 [label=<gini = 0.0<br/>samples = 2255<br/>value = [2255, 0]<br/>class = 0>, fillcolor="#e58139"] ;
188 -> 194 ;
195 [label=<Flair_Behavioral &le; 5.5<br/>gini = 0.159<br/>samples = 69<br/>value = [63, 6]<br/>class = 0>, fillcolor="#e78d4c"] ;
187 -> 195 ;
196 [label=<LeftFoot_Technical &le; 15.0<br/>gini = 0.48<br/>samples = 10<br/>value = [4, 6]<br/>class = 1>, fillcolor="#bddef6"] ;
195 -> 196 ;
197 [label=<gini = 0.0<br/>samples = 4<br/>value = [4, 0]<br/>class = 0>, fillcolor="#e58139"] ;
196 -> 197 ;
198 [label=<gini = 0.0<br/>samples = 6<br/>value = [0, 6]<br/>class = 1>, fillcolor="#399de5"] ;
196 -> 198 ;
199 [label=<gini = 0.0<br/>samples = 59<br/>value = [59, 0]<br/>class = 0>, fillcolor="#e58139"] ;
195 -> 199 ;
200 [label=<Decisions_Behavioral &le; 14.5<br/>gini = 0.08<br/>samples = 793<br/>value = [760, 33]<br/>class = 0>, fillcolor="#e68642"] ;
186 -> 200 ;
201 [label=<Temperament_Behavioral &le; 18.5<br/>gini = 0.064<br/>samples = 761<br/>value = [736, 25]<br/>class = 0>, fillcolor="#e68540"] ;
200 -> 201 ;
202 [label=<TendencyToPunch_Technical &le; 3.5<br/>gini = 0.038<br/>samples = 677<br/>value = [664, 13]<br/>class = 0>, fillcolor="#e6833d"] ;
201 -> 202 ;
203 [label=<RushingOut_Technical &le; 3.5<br/>gini = 0.016<br/>samples = 634<br/>value = [629, 5]<br/>class = 0>, fillcolor="#e5823b"] ;
202 -> 203 ;
204 [label=<Leadership_Behavioral &le; 13.5<br/>gini = 0.007<br/>samples = 602<br/>value = [600, 2]<br/>class = 0>, fillcolor="#e5813a"] ;
203 -> 204 ;
205 [label=<gini = 0.0<br/>samples = 574<br/>value = [574, 0]<br/>class = 0>, fillcolor="#e58139"] ;
204 -> 205 ;
206 [label=<Technique_Technical &le; 7.0<br/>gini = 0.133<br/>samples = 28<br/>value = [26, 2]<br/>class = 0>, fillcolor="#e78b48"] ;
204 -> 206 ;
207 [label=<LongShots_Technical &le; 8.0<br/>gini = 0.444<br/>samples = 3<br/>value = [1, 2]<br/>class = 1>, fillcolor="#9ccef2"] ;
206 -> 207 ;
208 [label=<gini = 0.0<br/>samples = 1<br/>value = [1, 0]<br/>class = 0>, fillcolor="#e58139"] ;
207 -> 208 ;
209 [label=<gini = 0.0<br/>samples = 2<br/>value = [0, 2]<br/>class = 1>, fillcolor="#399de5"] ;
207 -> 209 ;
210 [label=<gini = 0.0<br/>samples = 25<br/>value = [25, 0]<br/>class = 0>, fillcolor="#e58139"] ;
206 -> 210 ;
211 [label=<Flair_Behavioral &le; 12.5<br/>gini = 0.17<br/>samples = 32<br/>value = [29, 3]<br/>class = 0>, fillcolor="#e88e4d"] ;
203 -> 211 ;
212 [label=<gini = 0.0<br/>samples = 28<br/>value = [28, 0]<br/>class = 0>, fillcolor="#e58139"] ;
211 -> 212 ;
213 [label=<Teamwork_Behavioral &le; 6.0<br/>gini = 0.375<br/>samples = 4<br/>value = [1, 3]<br/>class = 1>, fillcolor="#7bbeee"] ;
211 -> 213 ;
214 [label=<gini = 0.0<br/>samples = 1<br/>value = [1, 0]<br/>class = 0>, fillcolor="#e58139"] ;
213 -> 214 ;
215 [label=<gini = 0.0<br/>samples = 3<br/>value = [0, 3]<br/>class = 1>, fillcolor="#399de5"] ;
213 -> 215 ;
216 [label=<Tackling_Technical &le; 11.0<br/>gini = 0.303<br/>samples = 43<br/>value = [35, 8]<br/>class = 0>, fillcolor="#eb9e66"] ;
202 -> 216 ;
217 [label=<gini = 0.0<br/>samples = 34<br/>value = [34, 0]<br/>class = 0>, fillcolor="#e58139"] ;
216 -> 217 ;
218 [label=<Kicking_Technical &le; 2.0<br/>gini = 0.198<br/>samples = 9<br/>value = [1, 8]<br/>class = 1>, fillcolor="#52a9e8"] ;
216 -> 218 ;
219 [label=<gini = 0.0<br/>samples = 8<br/>value = [0, 8]<br/>class = 1>, fillcolor="#399de5"] ;
218 -> 219 ;
220 [label=<gini = 0.0<br/>samples = 1<br/>value = [1, 0]<br/>class = 0>, fillcolor="#e58139"] ;
218 -> 220 ;
221 [label=<Finishing_Technical &le; 11.5<br/>gini = 0.245<br/>samples = 84<br/>value = [72, 12]<br/>class = 0>, fillcolor="#e9965a"] ;
201 -> 221 ;
222 [label=<Leadership_Behavioral &le; 13.5<br/>gini = 0.086<br/>samples = 67<br/>value = [64, 3]<br/>class = 0>, fillcolor="#e68742"] ;
221 -> 222 ;
223 [label=<gini = 0.0<br/>samples = 63<br/>value = [63, 0]<br/>class = 0>, fillcolor="#e58139"] ;
222 -> 223 ;
224 [label=<Balance_Technical &le; 6.5<br/>gini = 0.375<br/>samples = 4<br/>value = [1, 3]<br/>class = 1>, fillcolor="#7bbeee"] ;
222 -> 224 ;
225 [label=<gini = 0.0<br/>samples = 1<br/>value = [1, 0]<br/>class = 0>, fillcolor="#e58139"] ;
224 -> 225 ;
226 [label=<gini = 0.0<br/>samples = 3<br/>value = [0, 3]<br/>class = 1>, fillcolor="#399de5"] ;
224 -> 226 ;
227 [label=<Acceleration_Technical &le; 13.5<br/>gini = 0.498<br/>samples = 17<br/>value = [8, 9]<br/>class = 1>, fillcolor="#e9f4fc"] ;
221 -> 227 ;
228 [label=<gini = 0.0<br/>samples = 8<br/>value = [8, 0]<br/>class = 0>, fillcolor="#e58139"] ;
227 -> 228 ;
229 [label=<gini = 0.0<br/>samples = 9<br/>value = [0, 9]<br/>class = 1>, fillcolor="#399de5"] ;
227 -> 229 ;
230 [label=<OffTheBall_Technical &le; 5.0<br/>gini = 0.375<br/>samples = 32<br/>value = [24, 8]<br/>class = 0>, fillcolor="#eeab7b"] ;
200 -> 230 ;
231 [label=<gini = 0.0<br/>samples = 8<br/>value = [0, 8]<br/>class = 1>, fillcolor="#399de5"] ;
230 -> 231 ;
232 [label=<gini = 0.0<br/>samples = 24<br/>value = [24, 0]<br/>class = 0>, fillcolor="#e58139"] ;
230 -> 232 ;
233 [label=<Finishing_Technical &le; 9.5<br/>gini = 0.298<br/>samples = 66<br/>value = [54, 12]<br/>class = 0>, fillcolor="#eb9d65"] ;
157 -> 233 ;
234 [label=<Communication_Behavioral &le; 11.5<br/>gini = 0.128<br/>samples = 58<br/>value = [54, 4]<br/>class = 0>, fillcolor="#e78a48"] ;
233 -> 234 ;
235 [label=<gini = 0.0<br/>samples = 54<br/>value = [54, 0]<br/>class = 0>, fillcolor="#e58139"] ;
234 -> 235 ;
236 [label=<gini = 0.0<br/>samples = 4<br/>value = [0, 4]<br/>class = 1>, fillcolor="#399de5"] ;
234 -> 236 ;
237 [label=<gini = 0.0<br/>samples = 8<br/>value = [0, 8]<br/>class = 1>, fillcolor="#399de5"] ;
233 -> 237 ;
238 [label=<Marking_Technical &le; 10.5<br/>gini = 0.294<br/>samples = 123<br/>value = [101, 22]<br/>class = 0>, fillcolor="#eb9c64"] ;
152 -> 238 ;
239 [label=<Agility_Technical &le; 4.5<br/>gini = 0.075<br/>samples = 102<br/>value = [98, 4]<br/>class = 0>, fillcolor="#e68641"] ;
238 -> 239 ;
240 [label=<gini = 0.0<br/>samples = 4<br/>value = [0, 4]<br/>class = 1>, fillcolor="#399de5"] ;
239 -> 240 ;
241 [label=<gini = 0.0<br/>samples = 98<br/>value = [98, 0]<br/>class = 0>, fillcolor="#e58139"] ;
239 -> 241 ;
242 [label=<TendencyToPunch_Technical &le; 2.5<br/>gini = 0.245<br/>samples = 21<br/>value = [3, 18]<br/>class = 1>, fillcolor="#5aade9"] ;
238 -> 242 ;
243 [label=<gini = 0.0<br/>samples = 18<br/>value = [0, 18]<br/>class = 1>, fillcolor="#399de5"] ;
242 -> 243 ;
244 [label=<gini = 0.0<br/>samples = 3<br/>value = [3, 0]<br/>class = 0>, fillcolor="#e58139"] ;
242 -> 244 ;
245 [label=<Dirtiness_Behavioral &le; 14.5<br/>gini = 0.097<br/>samples = 1609<br/>value = [1527, 82]<br/>class = 0>, fillcolor="#e68844"] ;
27 -> 245 ;
246 [label=<Loyalty_Behavioral &le; 7.5<br/>gini = 0.083<br/>samples = 1586<br/>value = [1517, 69]<br/>class = 0>, fillcolor="#e68742"] ;
245 -> 246 ;
247 [label=<Pace_Technical &le; 12.5<br/>gini = 0.444<br/>samples = 45<br/>value = [30, 15]<br/>class = 0>, fillcolor="#f2c09c"] ;
246 -> 247 ;
248 [label=<gini = 0.0<br/>samples = 28<br/>value = [28, 0]<br/>class = 0>, fillcolor="#e58139"] ;
247 -> 248 ;
249 [label=<Leadership_Behavioral &le; 4.0<br/>gini = 0.208<br/>samples = 17<br/>value = [2, 15]<br/>class = 1>, fillcolor="#53aae8"] ;
247 -> 249 ;
250 [label=<gini = 0.0<br/>samples = 2<br/>value = [2, 0]<br/>class = 0>, fillcolor="#e58139"] ;
249 -> 250 ;
251 [label=<gini = 0.0<br/>samples = 15<br/>value = [0, 15]<br/>class = 1>, fillcolor="#399de5"] ;
249 -> 251 ;
252 [label=<Dribbling_Technical &le; 13.5<br/>gini = 0.068<br/>samples = 1541<br/>value = [1487, 54]<br/>class = 0>, fillcolor="#e68640"] ;
246 -> 252 ;
253 [label=<Reflexes_Technical &le; 14.5<br/>gini = 0.062<br/>samples = 1532<br/>value = [1483, 49]<br/>class = 0>, fillcolor="#e68540"] ;
252 -> 253 ;
254 [label=<Dirtiness_Behavioral &le; 4.5<br/>gini = 0.054<br/>samples = 1515<br/>value = [1473, 42]<br/>class = 0>, fillcolor="#e6853f"] ;
253 -> 254 ;
255 [label=<Tackling_Technical &le; 14.5<br/>gini = 0.207<br/>samples = 171<br/>value = [151, 20]<br/>class = 0>, fillcolor="#e89253"] ;
254 -> 255 ;
256 [label=<Consistency_Behavioral &le; 12.5<br/>gini = 0.12<br/>samples = 156<br/>value = [146, 10]<br/>class = 0>, fillcolor="#e78a47"] ;
255 -> 256 ;
257 [label=<Temperament_Behavioral &le; 1.5<br/>gini = 0.064<br/>samples = 150<br/>value = [145, 5]<br/>class = 0>, fillcolor="#e68540"] ;
256 -> 257 ;
258 [label=<Balance_Technical &le; 6.0<br/>gini = 0.408<br/>samples = 7<br/>value = [2, 5]<br/>class = 1>, fillcolor="#88c4ef"] ;
257 -> 258 ;
259 [label=<gini = 0.0<br/>samples = 5<br/>value = [0, 5]<br/>class = 1>, fillcolor="#399de5"] ;
258 -> 259 ;
260 [label=<gini = 0.0<br/>samples = 2<br/>value = [2, 0]<br/>class = 0>, fillcolor="#e58139"] ;
258 -> 260 ;
261 [label=<gini = 0.0<br/>samples = 143<br/>value = [143, 0]<br/>class = 0>, fillcolor="#e58139"] ;
257 -> 261 ;
262 [label=<Dribbling_Technical &le; 5.5<br/>gini = 0.278<br/>samples = 6<br/>value = [1, 5]<br/>class = 1>, fillcolor="#61b1ea"] ;
256 -> 262 ;
263 [label=<gini = 0.0<br/>samples = 1<br/>value = [1, 0]<br/>class = 0>, fillcolor="#e58139"] ;
262 -> 263 ;
264 [label=<gini = 0.0<br/>samples = 5<br/>value = [0, 5]<br/>class = 1>, fillcolor="#399de5"] ;
262 -> 264 ;
265 [label=<Strength_Technical &le; 10.5<br/>gini = 0.444<br/>samples = 15<br/>value = [5, 10]<br/>class = 1>, fillcolor="#9ccef2"] ;
255 -> 265 ;
266 [label=<gini = 0.0<br/>samples = 5<br/>value = [5, 0]<br/>class = 0>, fillcolor="#e58139"] ;
265 -> 266 ;
267 [label=<gini = 0.0<br/>samples = 10<br/>value = [0, 10]<br/>class = 1>, fillcolor="#399de5"] ;
265 -> 267 ;
268 [label=<Positioning_Behavioral &le; 3.5<br/>gini = 0.032<br/>samples = 1344<br/>value = [1322, 22]<br/>class = 0>, fillcolor="#e5833c"] ;
254 -> 268 ;
269 [label=<Adaptability_Behavioral &le; 9.5<br/>gini = 0.375<br/>samples = 16<br/>value = [12, 4]<br/>class = 0>, fillcolor="#eeab7b"] ;
268 -> 269 ;
270 [label=<gini = 0.0<br/>samples = 4<br/>value = [0, 4]<br/>class = 1>, fillcolor="#399de5"] ;
269 -> 270 ;
271 [label=<gini = 0.0<br/>samples = 12<br/>value = [12, 0]<br/>class = 0>, fillcolor="#e58139"] ;
269 -> 271 ;
272 [label=<Jumping_Technical &le; 15.5<br/>gini = 0.027<br/>samples = 1328<br/>value = [1310, 18]<br/>class = 0>, fillcolor="#e5833c"] ;
268 -> 272 ;
273 [label=<Pressure_Behavioral &le; 7.5<br/>gini = 0.018<br/>samples = 1287<br/>value = [1275, 12]<br/>class = 0>, fillcolor="#e5823b"] ;
272 -> 273 ;
274 [label=<Adaptability_Behavioral &le; 19.5<br/>gini = 0.24<br/>samples = 43<br/>value = [37, 6]<br/>class = 0>, fillcolor="#e99559"] ;
273 -> 274 ;
275 [label=<gini = 0.0<br/>samples = 37<br/>value = [37, 0]<br/>class = 0>, fillcolor="#e58139"] ;
274 -> 275 ;
276 [label=<gini = 0.0<br/>samples = 6<br/>value = [0, 6]<br/>class = 1>, fillcolor="#399de5"] ;
274 -> 276 ;
277 [label=<Decisions_Behavioral &le; 7.5<br/>gini = 0.01<br/>samples = 1244<br/>value = [1238, 6]<br/>class = 0>, fillcolor="#e5823a"] ;
273 -> 277 ;
278 [label=<Adaptability_Behavioral &le; 7.5<br/>gini = 0.163<br/>samples = 67<br/>value = [61, 6]<br/>class = 0>, fillcolor="#e88d4c"] ;
277 -> 278 ;
279 [label=<ImportantMatches_Technical &le; 7.0<br/>gini = 0.375<br/>samples = 8<br/>value = [2, 6]<br/>class = 1>, fillcolor="#7bbeee"] ;
278 -> 279 ;
280 [label=<gini = 0.0<br/>samples = 2<br/>value = [2, 0]<br/>class = 0>, fillcolor="#e58139"] ;
279 -> 280 ;
281 [label=<gini = 0.0<br/>samples = 6<br/>value = [0, 6]<br/>class = 1>, fillcolor="#399de5"] ;
279 -> 281 ;
282 [label=<gini = 0.0<br/>samples = 59<br/>value = [59, 0]<br/>class = 0>, fillcolor="#e58139"] ;
278 -> 282 ;
283 [label=<gini = 0.0<br/>samples = 1177<br/>value = [1177, 0]<br/>class = 0>, fillcolor="#e58139"] ;
277 -> 283 ;
284 [label=<Agility_Technical &le; 14.5<br/>gini = 0.25<br/>samples = 41<br/>value = [35, 6]<br/>class = 0>, fillcolor="#e9975b"] ;
272 -> 284 ;
285 [label=<gini = 0.0<br/>samples = 33<br/>value = [33, 0]<br/>class = 0>, fillcolor="#e58139"] ;
284 -> 285 ;
286 [label=<FirstTouch_Technical &le; 2.5<br/>gini = 0.375<br/>samples = 8<br/>value = [2, 6]<br/>class = 1>, fillcolor="#7bbeee"] ;
284 -> 286 ;
287 [label=<gini = 0.0<br/>samples = 6<br/>value = [0, 6]<br/>class = 1>, fillcolor="#399de5"] ;
286 -> 287 ;
288 [label=<gini = 0.0<br/>samples = 2<br/>value = [2, 0]<br/>class = 0>, fillcolor="#e58139"] ;
286 -> 288 ;
289 [label=<Vision_Behavioral &le; 5.5<br/>gini = 0.484<br/>samples = 17<br/>value = [10, 7]<br/>class = 0>, fillcolor="#f7d9c4"] ;
253 -> 289 ;
290 [label=<gini = 0.0<br/>samples = 7<br/>value = [0, 7]<br/>class = 1>, fillcolor="#399de5"] ;
289 -> 290 ;
291 [label=<gini = 0.0<br/>samples = 10<br/>value = [10, 0]<br/>class = 0>, fillcolor="#e58139"] ;
289 -> 291 ;
292 [label=<Loyalty_Behavioral &le; 10.5<br/>gini = 0.494<br/>samples = 9<br/>value = [4, 5]<br/>class = 1>, fillcolor="#d7ebfa"] ;
252 -> 292 ;
293 [label=<gini = 0.0<br/>samples = 5<br/>value = [0, 5]<br/>class = 1>, fillcolor="#399de5"] ;
292 -> 293 ;
294 [label=<gini = 0.0<br/>samples = 4<br/>value = [4, 0]<br/>class = 0>, fillcolor="#e58139"] ;
292 -> 294 ;
295 [label=<Temperament_Behavioral &le; 4.5<br/>gini = 0.491<br/>samples = 23<br/>value = [10, 13]<br/>class = 1>, fillcolor="#d1e8f9"] ;
245 -> 295 ;
296 [label=<gini = 0.0<br/>samples = 13<br/>value = [0, 13]<br/>class = 1>, fillcolor="#399de5"] ;
295 -> 296 ;
297 [label=<gini = 0.0<br/>samples = 10<br/>value = [10, 0]<br/>class = 0>, fillcolor="#e58139"] ;
295 -> 297 ;
298 [label=<TendencyToPunch_Technical &le; 12.5<br/>gini = 0.127<br/>samples = 58213<br/>value = [54242, 3971]<br/>class = 0>, fillcolor="#e78a47"] ;
4 -> 298 ;
299 [label=<Handling_Technical &le; 1.5<br/>gini = 0.124<br/>samples = 57856<br/>value = [54002, 3854]<br/>class = 0>, fillcolor="#e78a47"] ;
298 -> 299 ;
300 [label=<Pace_Technical &le; 7.5<br/>gini = 0.174<br/>samples = 16450<br/>value = [14870, 1580]<br/>class = 0>, fillcolor="#e88e4e"] ;
299 -> 300 ;
301 [label=<Longthrows_Technical &le; 1.5<br/>gini = 0.311<br/>samples = 1226<br/>value = [990, 236]<br/>class = 0>, fillcolor="#eb9f68"] ;
300 -> 301 ;
302 [label=<Marking_Technical &le; 6.5<br/>gini = 0.402<br/>samples = 656<br/>value = [473, 183]<br/>class = 0>, fillcolor="#efb286"] ;
301 -> 302 ;
303 [label=<Determination_Behavioral &le; 15.5<br/>gini = 0.165<br/>samples = 176<br/>value = [160, 16]<br/>class = 0>, fillcolor="#e88e4d"] ;
302 -> 303 ;
304 [label=<Dirtiness_Behavioral &le; 1.5<br/>gini = 0.101<br/>samples = 168<br/>value = [159, 9]<br/>class = 0>, fillcolor="#e68844"] ;
303 -> 304 ;
305 [label=<Controversy_Behavioral &le; 4.5<br/>gini = 0.444<br/>samples = 3<br/>value = [1, 2]<br/>class = 1>, fillcolor="#9ccef2"] ;
304 -> 305 ;
306 [label=<gini = 0.0<br/>samples = 2<br/>value = [0, 2]<br/>class = 1>, fillcolor="#399de5"] ;
305 -> 306 ;
307 [label=<gini = 0.0<br/>samples = 1<br/>value = [1, 0]<br/>class = 0>, fillcolor="#e58139"] ;
305 -> 307 ;
308 [label=<Positioning_Behavioral &le; 2.5<br/>gini = 0.081<br/>samples = 165<br/>value = [158, 7]<br/>class = 0>, fillcolor="#e68742"] ;
304 -> 308 ;
309 [label=<Leadership_Behavioral &le; 10.5<br/>gini = 0.32<br/>samples = 35<br/>value = [28, 7]<br/>class = 0>, fillcolor="#eca06a"] ;
308 -> 309 ;
310 [label=<gini = 0.0<br/>samples = 26<br/>value = [26, 0]<br/>class = 0>, fillcolor="#e58139"] ;
309 -> 310 ;
311 [label=<FirstTouch_Technical &le; 9.0<br/>gini = 0.346<br/>samples = 9<br/>value = [2, 7]<br/>class = 1>, fillcolor="#72b9ec"] ;
309 -> 311 ;
312 [label=<gini = 0.0<br/>samples = 2<br/>value = [2, 0]<br/>class = 0>, fillcolor="#e58139"] ;
311 -> 312 ;
313 [label=<gini = 0.0<br/>samples = 7<br/>value = [0, 7]<br/>class = 1>, fillcolor="#399de5"] ;
311 -> 313 ;
314 [label=<gini = 0.0<br/>samples = 130<br/>value = [130, 0]<br/>class = 0>, fillcolor="#e58139"] ;
308 -> 314 ;
315 [label=<Kicking_Technical &le; 2.0<br/>gini = 0.219<br/>samples = 8<br/>value = [1, 7]<br/>class = 1>, fillcolor="#55abe9"] ;
303 -> 315 ;
316 [label=<gini = 0.0<br/>samples = 1<br/>value = [1, 0]<br/>class = 0>, fillcolor="#e58139"] ;
315 -> 316 ;
317 [label=<gini = 0.0<br/>samples = 7<br/>value = [0, 7]<br/>class = 1>, fillcolor="#399de5"] ;
315 -> 317 ;
318 [label=<AerialAbility_Technical &le; 3.5<br/>gini = 0.454<br/>samples = 480<br/>value = [313, 167]<br/>class = 0>, fillcolor="#f3c4a3"] ;
302 -> 318 ;
319 [label=<Vision_Behavioral &le; 5.5<br/>gini = 0.421<br/>samples = 428<br/>value = [299, 129]<br/>class = 0>, fillcolor="#f0b78e"] ;
318 -> 319 ;
320 [label=<Tackling_Technical &le; 11.5<br/>gini = 0.366<br/>samples = 332<br/>value = [252, 80]<br/>class = 0>, fillcolor="#eda978"] ;
319 -> 320 ;
321 [label=<ImportantMatches_Technical &le; 5.5<br/>gini = 0.27<br/>samples = 236<br/>value = [198, 38]<br/>class = 0>, fillcolor="#ea995f"] ;
320 -> 321 ;
322 [label=<Heading_Technical &le; 8.5<br/>gini = 0.43<br/>samples = 96<br/>value = [66, 30]<br/>class = 0>, fillcolor="#f1ba93"] ;
321 -> 322 ;
323 [label=<Leadership_Behavioral &le; 15.5<br/>gini = 0.241<br/>samples = 50<br/>value = [43, 7]<br/>class = 0>, fillcolor="#e99659"] ;
322 -> 323 ;
324 [label=<LeftFoot_Technical &le; 4.5<br/>gini = 0.156<br/>samples = 47<br/>value = [43, 4]<br/>class = 0>, fillcolor="#e78d4b"] ;
323 -> 324 ;
325 [label=<Marking_Technical &le; 11.5<br/>gini = 0.5<br/>samples = 8<br/>value = [4, 4]<br/>class = 0>, fillcolor="#ffffff"] ;
324 -> 325 ;
326 [label=<gini = 0.0<br/>samples = 4<br/>value = [4, 0]<br/>class = 0>, fillcolor="#e58139"] ;
325 -> 326 ;
327 [label=<gini = 0.0<br/>samples = 4<br/>value = [0, 4]<br/>class = 1>, fillcolor="#399de5"] ;
325 -> 327 ;
328 [label=<gini = 0.0<br/>samples = 39<br/>value = [39, 0]<br/>class = 0>, fillcolor="#e58139"] ;
324 -> 328 ;
329 [label=<gini = 0.0<br/>samples = 3<br/>value = [0, 3]<br/>class = 1>, fillcolor="#399de5"] ;
323 -> 329 ;
330 [label=<Positioning_Behavioral &le; 10.5<br/>gini = 0.5<br/>samples = 46<br/>value = [23, 23]<br/>class = 0>, fillcolor="#ffffff"] ;
322 -> 330 ;
331 [label=<Leadership_Behavioral &le; 9.5<br/>gini = 0.404<br/>samples = 32<br/>value = [9, 23]<br/>class = 1>, fillcolor="#86c3ef"] ;
330 -> 331 ;
332 [label=<Consistency_Behavioral &le; 5.0<br/>gini = 0.204<br/>samples = 26<br/>value = [3, 23]<br/>class = 1>, fillcolor="#53aae8"] ;
331 -> 332 ;
333 [label=<gini = 0.0<br/>samples = 2<br/>value = [2, 0]<br/>class = 0>, fillcolor="#e58139"] ;
332 -> 333 ;
334 [label=<FirstTouch_Technical &le; 1.5<br/>gini = 0.08<br/>samples = 24<br/>value = [1, 23]<br/>class = 1>, fillcolor="#42a1e6"] ;
332 -> 334 ;
335 [label=<gini = 0.0<br/>samples = 1<br/>value = [1, 0]<br/>class = 0>, fillcolor="#e58139"] ;
334 -> 335 ;
336 [label=<gini = 0.0<br/>samples = 23<br/>value = [0, 23]<br/>class = 1>, fillcolor="#399de5"] ;
334 -> 336 ;
337 [label=<gini = 0.0<br/>samples = 6<br/>value = [6, 0]<br/>class = 0>, fillcolor="#e58139"] ;
331 -> 337 ;
338 [label=<gini = 0.0<br/>samples = 14<br/>value = [14, 0]<br/>class = 0>, fillcolor="#e58139"] ;
330 -> 338 ;
339 [label=<Jumping_Technical &le; 14.5<br/>gini = 0.108<br/>samples = 140<br/>value = [132, 8]<br/>class = 0>, fillcolor="#e78945"] ;
321 -> 339 ;
340 [label=<Anticipation_Behavioral &le; 2.5<br/>gini = 0.058<br/>samples = 134<br/>value = [130, 4]<br/>class = 0>, fillcolor="#e6853f"] ;
339 -> 340 ;
341 [label=<Leadership_Behavioral &le; 3.0<br/>gini = 0.494<br/>samples = 9<br/>value = [5, 4]<br/>class = 0>, fillcolor="#fae6d7"] ;
340 -> 341 ;
342 [label=<gini = 0.0<br/>samples = 4<br/>value = [0, 4]<br/>class = 1>, fillcolor="#399de5"] ;
341 -> 342 ;
343 [label=<gini = 0.0<br/>samples = 5<br/>value = [5, 0]<br/>class = 0>, fillcolor="#e58139"] ;
341 -> 343 ;
344 [label=<gini = 0.0<br/>samples = 125<br/>value = [125, 0]<br/>class = 0>, fillcolor="#e58139"] ;
340 -> 344 ;
345 [label=<FirstTouch_Technical &le; 4.0<br/>gini = 0.444<br/>samples = 6<br/>value = [2, 4]<br/>class = 1>, fillcolor="#9ccef2"] ;
339 -> 345 ;
346 [label=<gini = 0.0<br/>samples = 4<br/>value = [0, 4]<br/>class = 1>, fillcolor="#399de5"] ;
345 -> 346 ;
347 [label=<gini = 0.0<br/>samples = 2<br/>value = [2, 0]<br/>class = 0>, fillcolor="#e58139"] ;
345 -> 347 ;
348 [label=<Temperament_Behavioral &le; 11.5<br/>gini = 0.492<br/>samples = 96<br/>value = [54, 42]<br/>class = 0>, fillcolor="#f9e3d3"] ;
320 -> 348 ;
349 [label=<ImportantMatches_Technical &le; 5.5<br/>gini = 0.361<br/>samples = 38<br/>value = [9, 29]<br/>class = 1>, fillcolor="#76bbed"] ;
348 -> 349 ;
350 [label=<gini = 0.0<br/>samples = 7<br/>value = [7, 0]<br/>class = 0>, fillcolor="#e58139"] ;
349 -> 350 ;
351 [label=<Dribbling_Technical &le; 2.5<br/>gini = 0.121<br/>samples = 31<br/>value = [2, 29]<br/>class = 1>, fillcolor="#47a4e7"] ;
349 -> 351 ;
352 [label=<gini = 0.0<br/>samples = 29<br/>value = [0, 29]<br/>class = 1>, fillcolor="#399de5"] ;
351 -> 352 ;
353 [label=<gini = 0.0<br/>samples = 2<br/>value = [2, 0]<br/>class = 0>, fillcolor="#e58139"] ;
351 -> 353 ;
354 [label=<Loyalty_Behavioral &le; 9.5<br/>gini = 0.348<br/>samples = 58<br/>value = [45, 13]<br/>class = 0>, fillcolor="#eda572"] ;
348 -> 354 ;
355 [label=<Technique_Technical &le; 3.0<br/>gini = 0.36<br/>samples = 17<br/>value = [4, 13]<br/>class = 1>, fillcolor="#76bbed"] ;
354 -> 355 ;
356 [label=<gini = 0.0<br/>samples = 13<br/>value = [0, 13]<br/>class = 1>, fillcolor="#399de5"] ;
355 -> 356 ;
357 [label=<gini = 0.0<br/>samples = 4<br/>value = [4, 0]<br/>class = 0>, fillcolor="#e58139"] ;
355 -> 357 ;
358 [label=<gini = 0.0<br/>samples = 41<br/>value = [41, 0]<br/>class = 0>, fillcolor="#e58139"] ;
354 -> 358 ;
359 [label=<Marking_Technical &le; 9.5<br/>gini = 0.5<br/>samples = 96<br/>value = [47, 49]<br/>class = 1>, fillcolor="#f7fbfe"] ;
319 -> 359 ;
360 [label=<Jumping_Technical &le; 15.5<br/>gini = 0.24<br/>samples = 43<br/>value = [37, 6]<br/>class = 0>, fillcolor="#e99559"] ;
359 -> 360 ;
361 [label=<Communication_Behavioral &le; 3.5<br/>gini = 0.097<br/>samples = 39<br/>value = [37, 2]<br/>class = 0>, fillcolor="#e68844"] ;
360 -> 361 ;
362 [label=<gini = 0.0<br/>samples = 37<br/>value = [37, 0]<br/>class = 0>, fillcolor="#e58139"] ;
361 -> 362 ;
363 [label=<gini = 0.0<br/>samples = 2<br/>value = [0, 2]<br/>class = 1>, fillcolor="#399de5"] ;
361 -> 363 ;
364 [label=<gini = 0.0<br/>samples = 4<br/>value = [0, 4]<br/>class = 1>, fillcolor="#399de5"] ;
360 -> 364 ;
365 [label=<Tackling_Technical &le; 11.5<br/>gini = 0.306<br/>samples = 53<br/>value = [10, 43]<br/>class = 1>, fillcolor="#67b4eb"] ;
359 -> 365 ;
366 [label=<Eccentricity_Behavioral &le; 2.5<br/>gini = 0.085<br/>samples = 45<br/>value = [2, 43]<br/>class = 1>, fillcolor="#42a2e6"] ;
365 -> 366 ;
367 [label=<gini = 0.0<br/>samples = 43<br/>value = [0, 43]<br/>class = 1>, fillcolor="#399de5"] ;
366 -> 367 ;
368 [label=<gini = 0.0<br/>samples = 2<br/>value = [2, 0]<br/>class = 0>, fillcolor="#e58139"] ;
366 -> 368 ;
369 [label=<gini = 0.0<br/>samples = 8<br/>value = [8, 0]<br/>class = 0>, fillcolor="#e58139"] ;
365 -> 369 ;
370 [label=<Composure_Behavioral &le; 3.5<br/>gini = 0.393<br/>samples = 52<br/>value = [14, 38]<br/>class = 1>, fillcolor="#82c1ef"] ;
318 -> 370 ;
371 [label=<gini = 0.0<br/>samples = 8<br/>value = [8, 0]<br/>class = 0>, fillcolor="#e58139"] ;
370 -> 371 ;
372 [label=<Professional_Behavioral &le; 10.5<br/>gini = 0.236<br/>samples = 44<br/>value = [6, 38]<br/>class = 1>, fillcolor="#58ace9"] ;
370 -> 372 ;
373 [label=<gini = 0.0<br/>samples = 5<br/>value = [5, 0]<br/>class = 0>, fillcolor="#e58139"] ;
372 -> 373 ;
374 [label=<ImportantMatches_Technical &le; 4.5<br/>gini = 0.05<br/>samples = 39<br/>value = [1, 38]<br/>class = 1>, fillcolor="#3ea0e6"] ;
372 -> 374 ;
375 [label=<gini = 0.0<br/>samples = 1<br/>value = [1, 0]<br/>class = 0>, fillcolor="#e58139"] ;
374 -> 375 ;
376 [label=<gini = 0.0<br/>samples = 38<br/>value = [0, 38]<br/>class = 1>, fillcolor="#399de5"] ;
374 -> 376 ;
377 [label=<Temperament_Behavioral &le; 5.5<br/>gini = 0.169<br/>samples = 570<br/>value = [517, 53]<br/>class = 0>, fillcolor="#e88e4d"] ;
301 -> 377 ;
378 [label=<Freekicks_Technical &le; 9.0<br/>gini = 0.5<br/>samples = 37<br/>value = [18, 19]<br/>class = 1>, fillcolor="#f5fafe"] ;
377 -> 378 ;
379 [label=<Loyalty_Behavioral &le; 14.5<br/>gini = 0.198<br/>samples = 18<br/>value = [16, 2]<br/>class = 0>, fillcolor="#e89152"] ;
378 -> 379 ;
380 [label=<gini = 0.0<br/>samples = 15<br/>value = [15, 0]<br/>class = 0>, fillcolor="#e58139"] ;
379 -> 380 ;
381 [label=<FirstTouch_Technical &le; 6.0<br/>gini = 0.444<br/>samples = 3<br/>value = [1, 2]<br/>class = 1>, fillcolor="#9ccef2"] ;
379 -> 381 ;
382 [label=<gini = 0.0<br/>samples = 1<br/>value = [1, 0]<br/>class = 0>, fillcolor="#e58139"] ;
381 -> 382 ;
383 [label=<gini = 0.0<br/>samples = 2<br/>value = [0, 2]<br/>class = 1>, fillcolor="#399de5"] ;
381 -> 383 ;
384 [label=<Anticipation_Behavioral &le; 8.5<br/>gini = 0.188<br/>samples = 19<br/>value = [2, 17]<br/>class = 1>, fillcolor="#50a9e8"] ;
378 -> 384 ;
385 [label=<gini = 0.0<br/>samples = 2<br/>value = [2, 0]<br/>class = 0>, fillcolor="#e58139"] ;
384 -> 385 ;
386 [label=<gini = 0.0<br/>samples = 17<br/>value = [0, 17]<br/>class = 1>, fillcolor="#399de5"] ;
384 -> 386 ;
387 [label=<TendencyToPunch_Technical &le; 6.5<br/>gini = 0.119<br/>samples = 533<br/>value = [499, 34]<br/>class = 0>, fillcolor="#e78a46"] ;
377 -> 387 ;
388 [label=<Anticipation_Behavioral &le; 9.5<br/>gini = 0.101<br/>samples = 527<br/>value = [499, 28]<br/>class = 0>, fillcolor="#e68844"] ;
387 -> 388 ;
389 [label=<Bravery_Behavioral &le; 1.5<br/>gini = 0.024<br/>samples = 412<br/>value = [407, 5]<br/>class = 0>, fillcolor="#e5833b"] ;
388 -> 389 ;
390 [label=<LongShots_Technical &le; 2.5<br/>gini = 0.459<br/>samples = 14<br/>value = [9, 5]<br/>class = 0>, fillcolor="#f3c7a7"] ;
389 -> 390 ;
391 [label=<gini = 0.0<br/>samples = 5<br/>value = [0, 5]<br/>class = 1>, fillcolor="#399de5"] ;
390 -> 391 ;
392 [label=<gini = 0.0<br/>samples = 9<br/>value = [9, 0]<br/>class = 0>, fillcolor="#e58139"] ;
390 -> 392 ;
393 [label=<gini = 0.0<br/>samples = 398<br/>value = [398, 0]<br/>class = 0>, fillcolor="#e58139"] ;
389 -> 393 ;
394 [label=<NaturalFitness_Technical &le; 11.5<br/>gini = 0.32<br/>samples = 115<br/>value = [92, 23]<br/>class = 0>, fillcolor="#eca06a"] ;
388 -> 394 ;
395 [label=<gini = 0.0<br/>samples = 62<br/>value = [62, 0]<br/>class = 0>, fillcolor="#e58139"] ;
394 -> 395 ;
396 [label=<Communication_Behavioral &le; 2.5<br/>gini = 0.491<br/>samples = 53<br/>value = [30, 23]<br/>class = 0>, fillcolor="#f9e2d1"] ;
394 -> 396 ;
397 [label=<Professional_Behavioral &le; 14.5<br/>gini = 0.227<br/>samples = 23<br/>value = [20, 3]<br/>class = 0>, fillcolor="#e99457"] ;
396 -> 397 ;
398 [label=<gini = 0.0<br/>samples = 20<br/>value = [20, 0]<br/>class = 0>, fillcolor="#e58139"] ;
397 -> 398 ;
399 [label=<gini = 0.0<br/>samples = 3<br/>value = [0, 3]<br/>class = 1>, fillcolor="#399de5"] ;
397 -> 399 ;
400 [label=<Marking_Technical &le; 9.5<br/>gini = 0.444<br/>samples = 30<br/>value = [10, 20]<br/>class = 1>, fillcolor="#9ccef2"] ;
396 -> 400 ;
401 [label=<Sportsmanship_Behavioral &le; 10.5<br/>gini = 0.165<br/>samples = 22<br/>value = [2, 20]<br/>class = 1>, fillcolor="#4da7e8"] ;
400 -> 401 ;
402 [label=<gini = 0.0<br/>samples = 2<br/>value = [2, 0]<br/>class = 0>, fillcolor="#e58139"] ;
401 -> 402 ;
403 [label=<gini = 0.0<br/>samples = 20<br/>value = [0, 20]<br/>class = 1>, fillcolor="#399de5"] ;
401 -> 403 ;
404 [label=<gini = 0.0<br/>samples = 8<br/>value = [8, 0]<br/>class = 0>, fillcolor="#e58139"] ;
400 -> 404 ;
405 [label=<gini = 0.0<br/>samples = 6<br/>value = [0, 6]<br/>class = 1>, fillcolor="#399de5"] ;
387 -> 405 ;
406 [label=<PenaltyTaking_Technical &le; 11.5<br/>gini = 0.161<br/>samples = 15224<br/>value = [13880, 1344]<br/>class = 0>, fillcolor="#e88d4c"] ;
300 -> 406 ;
407 [label=<Heading_Technical &le; 1.5<br/>gini = 0.156<br/>samples = 15039<br/>value = [13756, 1283]<br/>class = 0>, fillcolor="#e78d4b"] ;
406 -> 407 ;
408 [label=<Anticipation_Behavioral &le; 3.5<br/>gini = 0.258<br/>samples = 1203<br/>value = [1020, 183]<br/>class = 0>, fillcolor="#ea985d"] ;
407 -> 408 ;
409 [label=<Communication_Behavioral &le; 5.5<br/>gini = 0.054<br/>samples = 358<br/>value = [348, 10]<br/>class = 0>, fillcolor="#e6853f"] ;
408 -> 409 ;
410 [label=<InjuryProness_Technical &le; 3.5<br/>gini = 0.023<br/>samples = 349<br/>value = [345, 4]<br/>class = 0>, fillcolor="#e5823b"] ;
409 -> 410 ;
411 [label=<FirstTouch_Technical &le; 10.5<br/>gini = 0.332<br/>samples = 19<br/>value = [15, 4]<br/>class = 0>, fillcolor="#eca36e"] ;
410 -> 411 ;
412 [label=<gini = 0.0<br/>samples = 15<br/>value = [15, 0]<br/>class = 0>, fillcolor="#e58139"] ;
411 -> 412 ;
413 [label=<gini = 0.0<br/>samples = 4<br/>value = [0, 4]<br/>class = 1>, fillcolor="#399de5"] ;
411 -> 413 ;
414 [label=<gini = 0.0<br/>samples = 330<br/>value = [330, 0]<br/>class = 0>, fillcolor="#e58139"] ;
410 -> 414 ;
415 [label=<Bravery_Behavioral &le; 5.5<br/>gini = 0.444<br/>samples = 9<br/>value = [3, 6]<br/>class = 1>, fillcolor="#9ccef2"] ;
409 -> 415 ;
416 [label=<gini = 0.0<br/>samples = 6<br/>value = [0, 6]<br/>class = 1>, fillcolor="#399de5"] ;
415 -> 416 ;
417 [label=<gini = 0.0<br/>samples = 3<br/>value = [3, 0]<br/>class = 0>, fillcolor="#e58139"] ;
415 -> 417 ;
418 [label=<Balance_Technical &le; 5.5<br/>gini = 0.326<br/>samples = 845<br/>value = [672, 173]<br/>class = 0>, fillcolor="#eca16c"] ;
408 -> 418 ;
419 [label=<Eccentricity_Behavioral &le; 2.5<br/>gini = 0.412<br/>samples = 568<br/>value = [403, 165]<br/>class = 0>, fillcolor="#f0b58a"] ;
418 -> 419 ;
420 [label=<Anticipation_Behavioral &le; 8.5<br/>gini = 0.299<br/>samples = 333<br/>value = [272, 61]<br/>class = 0>, fillcolor="#eb9d65"] ;
419 -> 420 ;
421 [label=<Leadership_Behavioral &le; 12.5<br/>gini = 0.227<br/>samples = 306<br/>value = [266, 40]<br/>class = 0>, fillcolor="#e99457"] ;
420 -> 421 ;
422 [label=<Sportsmanship_Behavioral &le; 12.5<br/>gini = 0.129<br/>samples = 259<br/>value = [241, 18]<br/>class = 0>, fillcolor="#e78a48"] ;
421 -> 422 ;
423 [label=<Determination_Behavioral &le; 7.5<br/>gini = 0.03<br/>samples = 197<br/>value = [194, 3]<br/>class = 0>, fillcolor="#e5833c"] ;
422 -> 423 ;
424 [label=<Flair_Behavioral &le; 1.5<br/>gini = 0.011<br/>samples = 182<br/>value = [181, 1]<br/>class = 0>, fillcolor="#e5823a"] ;
423 -> 424 ;
425 [label=<Corners_Technical &le; 3.5<br/>gini = 0.198<br/>samples = 9<br/>value = [8, 1]<br/>class = 0>, fillcolor="#e89152"] ;
424 -> 425 ;
426 [label=<gini = 0.0<br/>samples = 8<br/>value = [8, 0]<br/>class = 0>, fillcolor="#e58139"] ;
425 -> 426 ;
427 [label=<gini = 0.0<br/>samples = 1<br/>value = [0, 1]<br/>class = 1>, fillcolor="#399de5"] ;
425 -> 427 ;
428 [label=<gini = 0.0<br/>samples = 173<br/>value = [173, 0]<br/>class = 0>, fillcolor="#e58139"] ;
424 -> 428 ;
429 [label=<Leadership_Behavioral &le; 2.0<br/>gini = 0.231<br/>samples = 15<br/>value = [13, 2]<br/>class = 0>, fillcolor="#e99457"] ;
423 -> 429 ;
430 [label=<Eccentricity_Behavioral &le; 1.5<br/>gini = 0.444<br/>samples = 3<br/>value = [1, 2]<br/>class = 1>, fillcolor="#9ccef2"] ;
429 -> 430 ;
431 [label=<gini = 0.0<br/>samples = 1<br/>value = [1, 0]<br/>class = 0>, fillcolor="#e58139"] ;
430 -> 431 ;
432 [label=<gini = 0.0<br/>samples = 2<br/>value = [0, 2]<br/>class = 1>, fillcolor="#399de5"] ;
430 -> 432 ;
433 [label=<gini = 0.0<br/>samples = 12<br/>value = [12, 0]<br/>class = 0>, fillcolor="#e58139"] ;
429 -> 433 ;
434 [label=<AerialAbility_Technical &le; 2.5<br/>gini = 0.367<br/>samples = 62<br/>value = [47, 15]<br/>class = 0>, fillcolor="#eda978"] ;
422 -> 434 ;
435 [label=<gini = 0.0<br/>samples = 34<br/>value = [34, 0]<br/>class = 0>, fillcolor="#e58139"] ;
434 -> 435 ;
436 [label=<Temperament_Behavioral &le; 14.5<br/>gini = 0.497<br/>samples = 28<br/>value = [13, 15]<br/>class = 1>, fillcolor="#e5f2fc"] ;
434 -> 436 ;
437 [label=<Technique_Technical &le; 6.5<br/>gini = 0.278<br/>samples = 18<br/>value = [3, 15]<br/>class = 1>, fillcolor="#61b1ea"] ;
436 -> 437 ;
438 [label=<gini = 0.0<br/>samples = 3<br/>value = [3, 0]<br/>class = 0>, fillcolor="#e58139"] ;
437 -> 438 ;
439 [label=<gini = 0.0<br/>samples = 15<br/>value = [0, 15]<br/>class = 1>, fillcolor="#399de5"] ;
437 -> 439 ;
440 [label=<gini = 0.0<br/>samples = 10<br/>value = [10, 0]<br/>class = 0>, fillcolor="#e58139"] ;
436 -> 440 ;
441 [label=<Vision_Behavioral &le; 3.5<br/>gini = 0.498<br/>samples = 47<br/>value = [25, 22]<br/>class = 0>, fillcolor="#fcf0e7"] ;
421 -> 441 ;
442 [label=<Pressure_Behavioral &le; 10.5<br/>gini = 0.26<br/>samples = 26<br/>value = [4, 22]<br/>class = 1>, fillcolor="#5dafea"] ;
441 -> 442 ;
443 [label=<gini = 0.0<br/>samples = 4<br/>value = [4, 0]<br/>class = 0>, fillcolor="#e58139"] ;
442 -> 443 ;
444 [label=<gini = 0.0<br/>samples = 22<br/>value = [0, 22]<br/>class = 1>, fillcolor="#399de5"] ;
442 -> 444 ;
445 [label=<gini = 0.0<br/>samples = 21<br/>value = [21, 0]<br/>class = 0>, fillcolor="#e58139"] ;
441 -> 445 ;
446 [label=<Agility_Technical &le; 11.0<br/>gini = 0.346<br/>samples = 27<br/>value = [6, 21]<br/>class = 1>, fillcolor="#72b9ec"] ;
420 -> 446 ;
447 [label=<Concentration_Behavioral &le; 6.5<br/>gini = 0.087<br/>samples = 22<br/>value = [1, 21]<br/>class = 1>, fillcolor="#42a2e6"] ;
446 -> 447 ;
448 [label=<gini = 0.0<br/>samples = 21<br/>value = [0, 21]<br/>class = 1>, fillcolor="#399de5"] ;
447 -> 448 ;
449 [label=<gini = 0.0<br/>samples = 1<br/>value = [1, 0]<br/>class = 0>, fillcolor="#e58139"] ;
447 -> 449 ;
450 [label=<gini = 0.0<br/>samples = 5<br/>value = [5, 0]<br/>class = 0>, fillcolor="#e58139"] ;
446 -> 450 ;
451 [label=<Sportsmanship_Behavioral &le; 12.5<br/>gini = 0.493<br/>samples = 235<br/>value = [131, 104]<br/>class = 0>, fillcolor="#fae5d6"] ;
419 -> 451 ;
452 [label=<Temperament_Behavioral &le; 17.5<br/>gini = 0.5<br/>samples = 203<br/>value = [99, 104]<br/>class = 1>, fillcolor="#f5fafe"] ;
451 -> 452 ;
453 [label=<Aggression_Behavioral &le; 5.5<br/>gini = 0.482<br/>samples = 168<br/>value = [68, 100]<br/>class = 1>, fillcolor="#c0e0f7"] ;
452 -> 453 ;
454 [label=<gini = 0.0<br/>samples = 13<br/>value = [13, 0]<br/>class = 0>, fillcolor="#e58139"] ;
453 -> 454 ;
455 [label=<Ambition_Behavioral &le; 12.5<br/>gini = 0.458<br/>samples = 155<br/>value = [55, 100]<br/>class = 1>, fillcolor="#a6d3f3"] ;
453 -> 455 ;
456 [label=<Corners_Technical &le; 1.5<br/>gini = 0.424<br/>samples = 144<br/>value = [44, 100]<br/>class = 1>, fillcolor="#90c8f0"] ;
455 -> 456 ;
457 [label=<gini = 0.0<br/>samples = 7<br/>value = [7, 0]<br/>class = 0>, fillcolor="#e58139"] ;
456 -> 457 ;
458 [label=<Composure_Behavioral &le; 7.5<br/>gini = 0.394<br/>samples = 137<br/>value = [37, 100]<br/>class = 1>, fillcolor="#82c1ef"] ;
456 -> 458 ;
459 [label=<Technique_Technical &le; 9.5<br/>gini = 0.361<br/>samples = 131<br/>value = [31, 100]<br/>class = 1>, fillcolor="#76bbed"] ;
458 -> 459 ;
460 [label=<Composure_Behavioral &le; 2.5<br/>gini = 0.32<br/>samples = 125<br/>value = [25, 100]<br/>class = 1>, fillcolor="#6ab6ec"] ;
459 -> 460 ;
461 [label=<gini = 0.0<br/>samples = 5<br/>value = [5, 0]<br/>class = 0>, fillcolor="#e58139"] ;
460 -> 461 ;
462 [label=<Sportsmanship_Behavioral &le; 9.5<br/>gini = 0.278<br/>samples = 120<br/>value = [20, 100]<br/>class = 1>, fillcolor="#61b1ea"] ;
460 -> 462 ;
463 [label=<gini = 0.0<br/>samples = 3<br/>value = [3, 0]<br/>class = 0>, fillcolor="#e58139"] ;
462 -> 463 ;
464 [label=<Loyalty_Behavioral &le; 13.5<br/>gini = 0.248<br/>samples = 117<br/>value = [17, 100]<br/>class = 1>, fillcolor="#5baee9"] ;
462 -> 464 ;
465 [label=<Reflexes_Technical &le; 3.5<br/>gini = 0.227<br/>samples = 115<br/>value = [15, 100]<br/>class = 1>, fillcolor="#57ace9"] ;
464 -> 465 ;
466 [label=<Technique_Technical &le; 4.5<br/>gini = 0.204<br/>samples = 113<br/>value = [13, 100]<br/>class = 1>, fillcolor="#53aae8"] ;
465 -> 466 ;
467 [label=<gini = 0.0<br/>samples = 2<br/>value = [2, 0]<br/>class = 0>, fillcolor="#e58139"] ;
466 -> 467 ;
468 [label=<AerialAbility_Technical &le; 2.5<br/>gini = 0.179<br/>samples = 111<br/>value = [11, 100]<br/>class = 1>, fillcolor="#4fa8e8"] ;
466 -> 468 ;
469 [label=<RightFoot_Technical &le; 14.0<br/>gini = 0.076<br/>samples = 76<br/>value = [3, 73]<br/>class = 1>, fillcolor="#41a1e6"] ;
468 -> 469 ;
470 [label=<gini = 0.0<br/>samples = 1<br/>value = [1, 0]<br/>class = 0>, fillcolor="#e58139"] ;
469 -> 470 ;
471 [label=<Aggression_Behavioral &le; 9.0<br/>gini = 0.052<br/>samples = 75<br/>value = [2, 73]<br/>class = 1>, fillcolor="#3ea0e6"] ;
469 -> 471 ;
472 [label=<Flair_Behavioral &le; 5.5<br/>gini = 0.027<br/>samples = 74<br/>value = [1, 73]<br/>class = 1>, fillcolor="#3c9ee5"] ;
471 -> 472 ;
473 [label=<Tackling_Technical &le; 4.5<br/>gini = 0.444<br/>samples = 3<br/>value = [1, 2]<br/>class = 1>, fillcolor="#9ccef2"] ;
472 -> 473 ;
474 [label=<gini = 0.0<br/>samples = 2<br/>value = [0, 2]<br/>class = 1>, fillcolor="#399de5"] ;
473 -> 474 ;
475 [label=<gini = 0.0<br/>samples = 1<br/>value = [1, 0]<br/>class = 0>, fillcolor="#e58139"] ;
473 -> 475 ;
476 [label=<gini = 0.0<br/>samples = 71<br/>value = [0, 71]<br/>class = 1>, fillcolor="#399de5"] ;
472 -> 476 ;
477 [label=<gini = 0.0<br/>samples = 1<br/>value = [1, 0]<br/>class = 0>, fillcolor="#e58139"] ;
471 -> 477 ;
478 [label=<Kicking_Technical &le; 1.5<br/>gini = 0.353<br/>samples = 35<br/>value = [8, 27]<br/>class = 1>, fillcolor="#74baed"] ;
468 -> 478 ;
479 [label=<gini = 0.0<br/>samples = 5<br/>value = [5, 0]<br/>class = 0>, fillcolor="#e58139"] ;
478 -> 479 ;
480 [label=<Positioning_Behavioral &le; 2.5<br/>gini = 0.18<br/>samples = 30<br/>value = [3, 27]<br/>class = 1>, fillcolor="#4fa8e8"] ;
478 -> 480 ;
481 [label=<gini = 0.0<br/>samples = 2<br/>value = [2, 0]<br/>class = 0>, fillcolor="#e58139"] ;
480 -> 481 ;
482 [label=<RightFoot_Technical &le; 4.5<br/>gini = 0.069<br/>samples = 28<br/>value = [1, 27]<br/>class = 1>, fillcolor="#40a1e6"] ;
480 -> 482 ;
483 [label=<gini = 0.0<br/>samples = 1<br/>value = [1, 0]<br/>class = 0>, fillcolor="#e58139"] ;
482 -> 483 ;
484 [label=<gini = 0.0<br/>samples = 27<br/>value = [0, 27]<br/>class = 1>, fillcolor="#399de5"] ;
482 -> 484 ;
485 [label=<gini = 0.0<br/>samples = 2<br/>value = [2, 0]<br/>class = 0>, fillcolor="#e58139"] ;
465 -> 485 ;
486 [label=<gini = 0.0<br/>samples = 2<br/>value = [2, 0]<br/>class = 0>, fillcolor="#e58139"] ;
464 -> 486 ;
487 [label=<gini = 0.0<br/>samples = 6<br/>value = [6, 0]<br/>class = 0>, fillcolor="#e58139"] ;
459 -> 487 ;
488 [label=<gini = 0.0<br/>samples = 6<br/>value = [6, 0]<br/>class = 0>, fillcolor="#e58139"] ;
458 -> 488 ;
489 [label=<gini = 0.0<br/>samples = 11<br/>value = [11, 0]<br/>class = 0>, fillcolor="#e58139"] ;
455 -> 489 ;
490 [label=<NaturalFitness_Technical &le; 4.0<br/>gini = 0.202<br/>samples = 35<br/>value = [31, 4]<br/>class = 0>, fillcolor="#e89153"] ;
452 -> 490 ;
491 [label=<gini = 0.0<br/>samples = 4<br/>value = [0, 4]<br/>class = 1>, fillcolor="#399de5"] ;
490 -> 491 ;
492 [label=<gini = 0.0<br/>samples = 31<br/>value = [31, 0]<br/>class = 0>, fillcolor="#e58139"] ;
490 -> 492 ;
493 [label=<gini = 0.0<br/>samples = 32<br/>value = [32, 0]<br/>class = 0>, fillcolor="#e58139"] ;
451 -> 493 ;
494 [label=<PenaltyTaking_Technical &le; 8.5<br/>gini = 0.056<br/>samples = 277<br/>value = [269, 8]<br/>class = 0>, fillcolor="#e6853f"] ;
418 -> 494 ;
495 [label=<OffTheBall_Technical &le; 10.5<br/>gini = 0.036<br/>samples = 274<br/>value = [269, 5]<br/>class = 0>, fillcolor="#e5833d"] ;
494 -> 495 ;
496 [label=<Stamina_Technical &le; 9.5<br/>gini = 0.015<br/>samples = 262<br/>value = [260, 2]<br/>class = 0>, fillcolor="#e5823b"] ;
495 -> 496 ;
497 [label=<gini = 0.0<br/>samples = 232<br/>value = [232, 0]<br/>class = 0>, fillcolor="#e58139"] ;
496 -> 497 ;
498 [label=<Dirtiness_Behavioral &le; 5.5<br/>gini = 0.124<br/>samples = 30<br/>value = [28, 2]<br/>class = 0>, fillcolor="#e78a47"] ;
496 -> 498 ;
499 [label=<Vision_Behavioral &le; 7.0<br/>gini = 0.444<br/>samples = 3<br/>value = [1, 2]<br/>class = 1>, fillcolor="#9ccef2"] ;
498 -> 499 ;
500 [label=<gini = 0.0<br/>samples = 1<br/>value = [1, 0]<br/>class = 0>, fillcolor="#e58139"] ;
499 -> 500 ;
501 [label=<gini = 0.0<br/>samples = 2<br/>value = [0, 2]<br/>class = 1>, fillcolor="#399de5"] ;
499 -> 501 ;
502 [label=<gini = 0.0<br/>samples = 27<br/>value = [27, 0]<br/>class = 0>, fillcolor="#e58139"] ;
498 -> 502 ;
503 [label=<Corners_Technical &le; 3.0<br/>gini = 0.375<br/>samples = 12<br/>value = [9, 3]<br/>class = 0>, fillcolor="#eeab7b"] ;
495 -> 503 ;
504 [label=<gini = 0.0<br/>samples = 3<br/>value = [0, 3]<br/>class = 1>, fillcolor="#399de5"] ;
503 -> 504 ;
505 [label=<gini = 0.0<br/>samples = 9<br/>value = [9, 0]<br/>class = 0>, fillcolor="#e58139"] ;
503 -> 505 ;
506 [label=<gini = 0.0<br/>samples = 3<br/>value = [0, 3]<br/>class = 1>, fillcolor="#399de5"] ;
494 -> 506 ;
507 [label=<Anticipation_Behavioral &le; 12.5<br/>gini = 0.146<br/>samples = 13836<br/>value = [12736, 1100]<br/>class = 0>, fillcolor="#e78c4a"] ;
407 -> 507 ;
508 [label=<OffTheBall_Technical &le; 15.5<br/>gini = 0.141<br/>samples = 13562<br/>value = [12524, 1038]<br/>class = 0>, fillcolor="#e78b49"] ;
507 -> 508 ;
509 [label=<Teamwork_Behavioral &le; 8.5<br/>gini = 0.14<br/>samples = 13549<br/>value = [12521, 1028]<br/>class = 0>, fillcolor="#e78b49"] ;
508 -> 509 ;
510 [label=<Leadership_Behavioral &le; 11.5<br/>gini = 0.156<br/>samples = 11502<br/>value = [10524, 978]<br/>class = 0>, fillcolor="#e78d4b"] ;
509 -> 510 ;
511 [label=<Marking_Technical &le; 14.5<br/>gini = 0.14<br/>samples = 9723<br/>value = [8989, 734]<br/>class = 0>, fillcolor="#e78b49"] ;
510 -> 511 ;
512 [label=<Consistency_Behavioral &le; 1.5<br/>gini = 0.138<br/>samples = 9709<br/>value = [8983, 726]<br/>class = 0>, fillcolor="#e78b49"] ;
511 -> 512 ;
513 [label=<Determination_Behavioral &le; 3.5<br/>gini = 0.5<br/>samples = 16<br/>value = [8, 8]<br/>class = 0>, fillcolor="#ffffff"] ;
512 -> 513 ;
514 [label=<gini = 0.0<br/>samples = 8<br/>value = [0, 8]<br/>class = 1>, fillcolor="#399de5"] ;
513 -> 514 ;
515 [label=<gini = 0.0<br/>samples = 8<br/>value = [8, 0]<br/>class = 0>, fillcolor="#e58139"] ;
513 -> 515 ;
516 [label=<Controversy_Behavioral &le; 15.5<br/>gini = 0.137<br/>samples = 9693<br/>value = [8975, 718]<br/>class = 0>, fillcolor="#e78b49"] ;
512 -> 516 ;
517 [label=<Sportsmanship_Behavioral &le; 14.5<br/>gini = 0.136<br/>samples = 9677<br/>value = [8967, 710]<br/>class = 0>, fillcolor="#e78b49"] ;
516 -> 517 ;
518 [label=<Agility_Technical &le; 5.5<br/>gini = 0.142<br/>samples = 9206<br/>value = [8496, 710]<br/>class = 0>, fillcolor="#e78c4a"] ;
517 -> 518 ;
519 [label=<Decisions_Behavioral &le; 5.5<br/>gini = 0.414<br/>samples = 58<br/>value = [41, 17]<br/>class = 0>, fillcolor="#f0b58b"] ;
518 -> 519 ;
520 [label=<OffTheBall_Technical &le; 5.5<br/>gini = 0.188<br/>samples = 19<br/>value = [2, 17]<br/>class = 1>, fillcolor="#50a9e8"] ;
519 -> 520 ;
521 [label=<gini = 0.0<br/>samples = 17<br/>value = [0, 17]<br/>class = 1>, fillcolor="#399de5"] ;
520 -> 521 ;
522 [label=<gini = 0.0<br/>samples = 2<br/>value = [2, 0]<br/>class = 0>, fillcolor="#e58139"] ;
520 -> 522 ;
523 [label=<gini = 0.0<br/>samples = 39<br/>value = [39, 0]<br/>class = 0>, fillcolor="#e58139"] ;
519 -> 523 ;
524 [label=<OffTheBall_Technical &le; 7.5<br/>gini = 0.14<br/>samples = 9148<br/>value = [8455, 693]<br/>class = 0>, fillcolor="#e78b49"] ;
518 -> 524 ;
525 [label=<Pressure_Behavioral &le; 13.5<br/>gini = 0.122<br/>samples = 6303<br/>value = [5891, 412]<br/>class = 0>, fillcolor="#e78a47"] ;
524 -> 525 ;
526 [label=<Acceleration_Technical &le; 6.5<br/>gini = 0.114<br/>samples = 6015<br/>value = [5651, 364]<br/>class = 0>, fillcolor="#e78946"] ;
525 -> 526 ;
527 [label=<Bravery_Behavioral &le; 1.5<br/>gini = 0.302<br/>samples = 151<br/>value = [123, 28]<br/>class = 0>, fillcolor="#eb9e66"] ;
526 -> 527 ;
528 [label=<gini = 0.0<br/>samples = 14<br/>value = [0, 14]<br/>class = 1>, fillcolor="#399de5"] ;
527 -> 528 ;
529 [label=<Concentration_Behavioral &le; 12.5<br/>gini = 0.183<br/>samples = 137<br/>value = [123, 14]<br/>class = 0>, fillcolor="#e88f50"] ;
527 -> 529 ;
530 [label=<Anticipation_Behavioral &le; 10.5<br/>gini = 0.116<br/>samples = 130<br/>value = [122, 8]<br/>class = 0>, fillcolor="#e78946"] ;
529 -> 530 ;
531 [label=<gini = 0.0<br/>samples = 111<br/>value = [111, 0]<br/>class = 0>, fillcolor="#e58139"] ;
530 -> 531 ;
532 [label=<Marking_Technical &le; 7.0<br/>gini = 0.488<br/>samples = 19<br/>value = [11, 8]<br/>class = 0>, fillcolor="#f8ddc9"] ;
530 -> 532 ;
533 [label=<gini = 0.0<br/>samples = 8<br/>value = [0, 8]<br/>class = 1>, fillcolor="#399de5"] ;
532 -> 533 ;
534 [label=<gini = 0.0<br/>samples = 11<br/>value = [11, 0]<br/>class = 0>, fillcolor="#e58139"] ;
532 -> 534 ;
535 [label=<Reflexes_Technical &le; 1.5<br/>gini = 0.245<br/>samples = 7<br/>value = [1, 6]<br/>class = 1>, fillcolor="#5aade9"] ;
529 -> 535 ;
536 [label=<gini = 0.0<br/>samples = 6<br/>value = [0, 6]<br/>class = 1>, fillcolor="#399de5"] ;
535 -> 536 ;
537 [label=<gini = 0.0<br/>samples = 1<br/>value = [1, 0]<br/>class = 0>, fillcolor="#e58139"] ;
535 -> 537 ;
538 [label=<InjuryProness_Technical &le; 6.5<br/>gini = 0.108<br/>samples = 5864<br/>value = [5528, 336]<br/>class = 0>, fillcolor="#e78945"] ;
526 -> 538 ;
539 [label=<Stamina_Technical &le; 9.5<br/>gini = 0.145<br/>samples = 2386<br/>value = [2198, 188]<br/>class = 0>, fillcolor="#e78c4a"] ;
538 -> 539 ;
540 [label=<Workrate_Technical &le; 6.5<br/>gini = 0.123<br/>samples = 2140<br/>value = [1999, 141]<br/>class = 0>, fillcolor="#e78a47"] ;
539 -> 540 ;
541 [label=<Loyalty_Behavioral &le; 7.5<br/>gini = 0.176<br/>samples = 1090<br/>value = [984, 106]<br/>class = 0>, fillcolor="#e88f4e"] ;
540 -> 541 ;
542 [label=<Sportsmanship_Behavioral &le; 12.5<br/>gini = 0.49<br/>samples = 14<br/>value = [6, 8]<br/>class = 1>, fillcolor="#cee6f8"] ;
541 -> 542 ;
543 [label=<gini = 0.0<br/>samples = 6<br/>value = [6, 0]<br/>class = 0>, fillcolor="#e58139"] ;
542 -> 543 ;
544 [label=<gini = 0.0<br/>samples = 8<br/>value = [0, 8]<br/>class = 1>, fillcolor="#399de5"] ;
542 -> 544 ;
545 [label=<PenaltyTaking_Technical &le; 5.5<br/>gini = 0.166<br/>samples = 1076<br/>value = [978, 98]<br/>class = 0>, fillcolor="#e88e4d"] ;
541 -> 545 ;
546 [label=<Aggression_Behavioral &le; 3.5<br/>gini = 0.144<br/>samples = 1011<br/>value = [932, 79]<br/>class = 0>, fillcolor="#e78c4a"] ;
545 -> 546 ;
547 [label=<FirstTouch_Technical &le; 3.5<br/>gini = 0.484<br/>samples = 17<br/>value = [10, 7]<br/>class = 0>, fillcolor="#f7d9c4"] ;
546 -> 547 ;
548 [label=<AerialAbility_Technical &le; 2.5<br/>gini = 0.219<br/>samples = 8<br/>value = [1, 7]<br/>class = 1>, fillcolor="#55abe9"] ;
547 -> 548 ;
549 [label=<gini = 0.0<br/>samples = 7<br/>value = [0, 7]<br/>class = 1>, fillcolor="#399de5"] ;
548 -> 549 ;
550 [label=<gini = 0.0<br/>samples = 1<br/>value = [1, 0]<br/>class = 0>, fillcolor="#e58139"] ;
548 -> 550 ;
551 [label=<gini = 0.0<br/>samples = 9<br/>value = [9, 0]<br/>class = 0>, fillcolor="#e58139"] ;
547 -> 551 ;
552 [label=<InjuryProness_Technical &le; 5.5<br/>gini = 0.134<br/>samples = 994<br/>value = [922, 72]<br/>class = 0>, fillcolor="#e78b48"] ;
546 -> 552 ;
553 [label=<Longthrows_Technical &le; 5.5<br/>gini = 0.032<br/>samples = 366<br/>value = [360, 6]<br/>class = 0>, fillcolor="#e5833c"] ;
552 -> 553 ;
554 [label=<Strength_Technical &le; 11.5<br/>gini = 0.016<br/>samples = 361<br/>value = [358, 3]<br/>class = 0>, fillcolor="#e5823b"] ;
553 -> 554 ;
555 [label=<gini = 0.0<br/>samples = 354<br/>value = [354, 0]<br/>class = 0>, fillcolor="#e58139"] ;
554 -> 555 ;
556 [label=<Positioning_Behavioral &le; 11.5<br/>gini = 0.49<br/>samples = 7<br/>value = [4, 3]<br/>class = 0>, fillcolor="#f8e0ce"] ;
554 -> 556 ;
557 [label=<gini = 0.0<br/>samples = 4<br/>value = [4, 0]<br/>class = 0>, fillcolor="#e58139"] ;
556 -> 557 ;
558 [label=<gini = 0.0<br/>samples = 3<br/>value = [0, 3]<br/>class = 1>, fillcolor="#399de5"] ;
556 -> 558 ;
559 [label=<ImportantMatches_Technical &le; 4.0<br/>gini = 0.48<br/>samples = 5<br/>value = [2, 3]<br/>class = 1>, fillcolor="#bddef6"] ;
553 -> 559 ;
560 [label=<gini = 0.0<br/>samples = 3<br/>value = [0, 3]<br/>class = 1>, fillcolor="#399de5"] ;
559 -> 560 ;
561 [label=<gini = 0.0<br/>samples = 2<br/>value = [2, 0]<br/>class = 0>, fillcolor="#e58139"] ;
559 -> 561 ;
562 [label=<Communication_Behavioral &le; 1.5<br/>gini = 0.188<br/>samples = 628<br/>value = [562, 66]<br/>class = 0>, fillcolor="#e89050"] ;
552 -> 562 ;
563 [label=<Ambition_Behavioral &le; 14.5<br/>gini = 0.034<br/>samples = 176<br/>value = [173, 3]<br/>class = 0>, fillcolor="#e5833c"] ;
562 -> 563 ;
564 [label=<gini = 0.0<br/>samples = 173<br/>value = [173, 0]<br/>class = 0>, fillcolor="#e58139"] ;
563 -> 564 ;
565 [label=<gini = 0.0<br/>samples = 3<br/>value = [0, 3]<br/>class = 1>, fillcolor="#399de5"] ;
563 -> 565 ;
566 [label=<Kicking_Technical &le; 1.5<br/>gini = 0.24<br/>samples = 452<br/>value = [389, 63]<br/>class = 0>, fillcolor="#e99559"] ;
562 -> 566 ;
567 [label=<Balance_Technical &le; 8.5<br/>gini = 0.032<br/>samples = 124<br/>value = [122, 2]<br/>class = 0>, fillcolor="#e5833c"] ;
566 -> 567 ;
568 [label=<gini = 0.0<br/>samples = 122<br/>value = [122, 0]<br/>class = 0>, fillcolor="#e58139"] ;
567 -> 568 ;
569 [label=<gini = 0.0<br/>samples = 2<br/>value = [0, 2]<br/>class = 1>, fillcolor="#399de5"] ;
567 -> 569 ;
570 [label=<Dribbling_Technical &le; 5.5<br/>gini = 0.303<br/>samples = 328<br/>value = [267, 61]<br/>class = 0>, fillcolor="#eb9e66"] ;
566 -> 570 ;
571 [label=<Tackling_Technical &le; 9.5<br/>gini = 0.345<br/>samples = 275<br/>value = [214, 61]<br/>class = 0>, fillcolor="#eca571"] ;
570 -> 571 ;
572 [label=<Leadership_Behavioral &le; 2.5<br/>gini = 0.402<br/>samples = 215<br/>value = [155, 60]<br/>class = 0>, fillcolor="#efb286"] ;
571 -> 572 ;
573 [label=<gini = 0.0<br/>samples = 34<br/>value = [34, 0]<br/>class = 0>, fillcolor="#e58139"] ;
572 -> 573 ;
574 [label=<Communication_Behavioral &le; 2.5<br/>gini = 0.443<br/>samples = 181<br/>value = [121, 60]<br/>class = 0>, fillcolor="#f2bf9b"] ;
572 -> 574 ;
575 [label=<Stamina_Technical &le; 7.5<br/>gini = 0.497<br/>samples = 89<br/>value = [48, 41]<br/>class = 0>, fillcolor="#fbede2"] ;
574 -> 575 ;
576 [label=<LongShots_Technical &le; 2.5<br/>gini = 0.404<br/>samples = 57<br/>value = [41, 16]<br/>class = 0>, fillcolor="#efb286"] ;
575 -> 576 ;
577 [label=<gini = 0.0<br/>samples = 34<br/>value = [34, 0]<br/>class = 0>, fillcolor="#e58139"] ;
576 -> 577 ;
578 [label=<LongShots_Technical &le; 3.5<br/>gini = 0.423<br/>samples = 23<br/>value = [7, 16]<br/>class = 1>, fillcolor="#90c8f0"] ;
576 -> 578 ;
579 [label=<Corners_Technical &le; 4.5<br/>gini = 0.111<br/>samples = 17<br/>value = [1, 16]<br/>class = 1>, fillcolor="#45a3e7"] ;
578 -> 579 ;
580 [label=<gini = 0.0<br/>samples = 16<br/>value = [0, 16]<br/>class = 1>, fillcolor="#399de5"] ;
579 -> 580 ;
581 [label=<gini = 0.0<br/>samples = 1<br/>value = [1, 0]<br/>class = 0>, fillcolor="#e58139"] ;
579 -> 581 ;
582 [label=<gini = 0.0<br/>samples = 6<br/>value = [6, 0]<br/>class = 0>, fillcolor="#e58139"] ;
578 -> 582 ;
583 [label=<FirstTouch_Technical &le; 5.5<br/>gini = 0.342<br/>samples = 32<br/>value = [7, 25]<br/>class = 1>, fillcolor="#70b8ec"] ;
575 -> 583 ;
584 [label=<Adaptability_Behavioral &le; 11.5<br/>gini = 0.137<br/>samples = 27<br/>value = [2, 25]<br/>class = 1>, fillcolor="#49a5e7"] ;
583 -> 584 ;
585 [label=<gini = 0.0<br/>samples = 2<br/>value = [2, 0]<br/>class = 0>, fillcolor="#e58139"] ;
584 -> 585 ;
586 [label=<gini = 0.0<br/>samples = 25<br/>value = [0, 25]<br/>class = 1>, fillcolor="#399de5"] ;
584 -> 586 ;
587 [label=<gini = 0.0<br/>samples = 5<br/>value = [5, 0]<br/>class = 0>, fillcolor="#e58139"] ;
583 -> 587 ;
588 [label=<OneOnOnes_Technical &le; 1.5<br/>gini = 0.328<br/>samples = 92<br/>value = [73, 19]<br/>class = 0>, fillcolor="#eca26d"] ;
574 -> 588 ;
589 [label=<Vision_Behavioral &le; 4.5<br/>gini = 0.498<br/>samples = 36<br/>value = [17, 19]<br/>class = 1>, fillcolor="#eaf5fc"] ;
588 -> 589 ;
590 [label=<Loyalty_Behavioral &le; 12.5<br/>gini = 0.308<br/>samples = 21<br/>value = [17, 4]<br/>class = 0>, fillcolor="#eb9f68"] ;
589 -> 590 ;
591 [label=<gini = 0.0<br/>samples = 17<br/>value = [17, 0]<br/>class = 0>, fillcolor="#e58139"] ;
590 -> 591 ;
592 [label=<gini = 0.0<br/>samples = 4<br/>value = [0, 4]<br/>class = 1>, fillcolor="#399de5"] ;
590 -> 592 ;
593 [label=<gini = 0.0<br/>samples = 15<br/>value = [0, 15]<br/>class = 1>, fillcolor="#399de5"] ;
589 -> 593 ;
594 [label=<gini = 0.0<br/>samples = 56<br/>value = [56, 0]<br/>class = 0>, fillcolor="#e58139"] ;
588 -> 594 ;
595 [label=<NaturalFitness_Technical &le; 4.0<br/>gini = 0.033<br/>samples = 60<br/>value = [59, 1]<br/>class = 0>, fillcolor="#e5833c"] ;
571 -> 595 ;
596 [label=<gini = 0.0<br/>samples = 1<br/>value = [0, 1]<br/>class = 1>, fillcolor="#399de5"] ;
595 -> 596 ;
597 [label=<gini = 0.0<br/>samples = 59<br/>value = [59, 0]<br/>class = 0>, fillcolor="#e58139"] ;
595 -> 597 ;
598 [label=<gini = 0.0<br/>samples = 53<br/>value = [53, 0]<br/>class = 0>, fillcolor="#e58139"] ;
570 -> 598 ;
599 [label=<Agility_Technical &le; 11.5<br/>gini = 0.414<br/>samples = 65<br/>value = [46, 19]<br/>class = 0>, fillcolor="#f0b58b"] ;
545 -> 599 ;
600 [label=<CommandOfArea_Technical &le; 3.5<br/>gini = 0.045<br/>samples = 43<br/>value = [42, 1]<br/>class = 0>, fillcolor="#e6843e"] ;
599 -> 600 ;
601 [label=<gini = 0.0<br/>samples = 41<br/>value = [41, 0]<br/>class = 0>, fillcolor="#e58139"] ;
600 -> 601 ;
602 [label=<Stamina_Technical &le; 6.5<br/>gini = 0.5<br/>samples = 2<br/>value = [1, 1]<br/>class = 0>, fillcolor="#ffffff"] ;
600 -> 602 ;
603 [label=<gini = 0.0<br/>samples = 1<br/>value = [0, 1]<br/>class = 1>, fillcolor="#399de5"] ;
602 -> 603 ;
604 [label=<gini = 0.0<br/>samples = 1<br/>value = [1, 0]<br/>class = 0>, fillcolor="#e58139"] ;
602 -> 604 ;
605 [label=<Jumping_Technical &le; 8.5<br/>gini = 0.298<br/>samples = 22<br/>value = [4, 18]<br/>class = 1>, fillcolor="#65b3eb"] ;
599 -> 605 ;
606 [label=<gini = 0.0<br/>samples = 18<br/>value = [0, 18]<br/>class = 1>, fillcolor="#399de5"] ;
605 -> 606 ;
607 [label=<gini = 0.0<br/>samples = 4<br/>value = [4, 0]<br/>class = 0>, fillcolor="#e58139"] ;
605 -> 607 ;
608 [label=<Anticipation_Behavioral &le; 9.5<br/>gini = 0.064<br/>samples = 1050<br/>value = [1015, 35]<br/>class = 0>, fillcolor="#e68540"] ;
540 -> 608 ;
609 [label=<Balance_Technical &le; 1.5<br/>gini = 0.035<br/>samples = 910<br/>value = [894, 16]<br/>class = 0>, fillcolor="#e5833d"] ;
608 -> 609 ;
610 [label=<Determination_Behavioral &le; 6.5<br/>gini = 0.388<br/>samples = 19<br/>value = [14, 5]<br/>class = 0>, fillcolor="#eeae80"] ;
609 -> 610 ;
611 [label=<gini = 0.0<br/>samples = 14<br/>value = [14, 0]<br/>class = 0>, fillcolor="#e58139"] ;
610 -> 611 ;
612 [label=<gini = 0.0<br/>samples = 5<br/>value = [0, 5]<br/>class = 1>, fillcolor="#399de5"] ;
610 -> 612 ;
613 [label=<Leadership_Behavioral &le; 10.5<br/>gini = 0.024<br/>samples = 891<br/>value = [880, 11]<br/>class = 0>, fillcolor="#e5833b"] ;
609 -> 613 ;
614 [label=<gini = 0.0<br/>samples = 782<br/>value = [782, 0]<br/>class = 0>, fillcolor="#e58139"] ;
613 -> 614 ;
615 [label=<Dirtiness_Behavioral &le; 3.5<br/>gini = 0.181<br/>samples = 109<br/>value = [98, 11]<br/>class = 0>, fillcolor="#e88f4f"] ;
613 -> 615 ;
616 [label=<Bravery_Behavioral &le; 2.0<br/>gini = 0.444<br/>samples = 9<br/>value = [3, 6]<br/>class = 1>, fillcolor="#9ccef2"] ;
615 -> 616 ;
617 [label=<gini = 0.0<br/>samples = 6<br/>value = [0, 6]<br/>class = 1>, fillcolor="#399de5"] ;
616 -> 617 ;
618 [label=<gini = 0.0<br/>samples = 3<br/>value = [3, 0]<br/>class = 0>, fillcolor="#e58139"] ;
616 -> 618 ;
619 [label=<Adaptability_Behavioral &le; 7.5<br/>gini = 0.095<br/>samples = 100<br/>value = [95, 5]<br/>class = 0>, fillcolor="#e68843"] ;
615 -> 619 ;
620 [label=<Agility_Technical &le; 12.5<br/>gini = 0.469<br/>samples = 8<br/>value = [3, 5]<br/>class = 1>, fillcolor="#b0d8f5"] ;
619 -> 620 ;
621 [label=<gini = 0.0<br/>samples = 3<br/>value = [3, 0]<br/>class = 0>, fillcolor="#e58139"] ;
620 -> 621 ;
622 [label=<gini = 0.0<br/>samples = 5<br/>value = [0, 5]<br/>class = 1>, fillcolor="#399de5"] ;
620 -> 622 ;
623 [label=<gini = 0.0<br/>samples = 92<br/>value = [92, 0]<br/>class = 0>, fillcolor="#e58139"] ;
619 -> 623 ;
624 [label=<Sportsmanship_Behavioral &le; 12.5<br/>gini = 0.235<br/>samples = 140<br/>value = [121, 19]<br/>class = 0>, fillcolor="#e99558"] ;
608 -> 624 ;
625 [label=<Determination_Behavioral &le; 1.5<br/>gini = 0.036<br/>samples = 108<br/>value = [106, 2]<br/>class = 0>, fillcolor="#e5833d"] ;
624 -> 625 ;
626 [label=<Pressure_Behavioral &le; 12.5<br/>gini = 0.408<br/>samples = 7<br/>value = [5, 2]<br/>class = 0>, fillcolor="#efb388"] ;
625 -> 626 ;
627 [label=<gini = 0.0<br/>samples = 5<br/>value = [5, 0]<br/>class = 0>, fillcolor="#e58139"] ;
626 -> 627 ;
628 [label=<gini = 0.0<br/>samples = 2<br/>value = [0, 2]<br/>class = 1>, fillcolor="#399de5"] ;
626 -> 628 ;
629 [label=<gini = 0.0<br/>samples = 101<br/>value = [101, 0]<br/>class = 0>, fillcolor="#e58139"] ;
625 -> 629 ;
630 [label=<AerialAbility_Technical &le; 2.5<br/>gini = 0.498<br/>samples = 32<br/>value = [15, 17]<br/>class = 1>, fillcolor="#e8f3fc"] ;
624 -> 630 ;
631 [label=<gini = 0.0<br/>samples = 13<br/>value = [13, 0]<br/>class = 0>, fillcolor="#e58139"] ;
630 -> 631 ;
632 [label=<FirstTouch_Technical &le; 7.5<br/>gini = 0.188<br/>samples = 19<br/>value = [2, 17]<br/>class = 1>, fillcolor="#50a9e8"] ;
630 -> 632 ;
633 [label=<gini = 0.0<br/>samples = 2<br/>value = [2, 0]<br/>class = 0>, fillcolor="#e58139"] ;
632 -> 633 ;
634 [label=<gini = 0.0<br/>samples = 17<br/>value = [0, 17]<br/>class = 1>, fillcolor="#399de5"] ;
632 -> 634 ;
635 [label=<RightFoot_Technical &le; 7.5<br/>gini = 0.309<br/>samples = 246<br/>value = [199, 47]<br/>class = 0>, fillcolor="#eb9f68"] ;
539 -> 635 ;
636 [label=<Passing_Technical &le; 5.5<br/>gini = 0.498<br/>samples = 49<br/>value = [23, 26]<br/>class = 1>, fillcolor="#e8f4fc"] ;
635 -> 636 ;
637 [label=<gini = 0.0<br/>samples = 15<br/>value = [15, 0]<br/>class = 0>, fillcolor="#e58139"] ;
636 -> 637 ;
638 [label=<PenaltyTaking_Technical &le; 2.5<br/>gini = 0.36<br/>samples = 34<br/>value = [8, 26]<br/>class = 1>, fillcolor="#76bbed"] ;
636 -> 638 ;
639 [label=<Temperament_Behavioral &le; 10.5<br/>gini = 0.133<br/>samples = 28<br/>value = [2, 26]<br/>class = 1>, fillcolor="#48a5e7"] ;
638 -> 639 ;
640 [label=<gini = 0.0<br/>samples = 2<br/>value = [2, 0]<br/>class = 0>, fillcolor="#e58139"] ;
639 -> 640 ;
641 [label=<gini = 0.0<br/>samples = 26<br/>value = [0, 26]<br/>class = 1>, fillcolor="#399de5"] ;
639 -> 641 ;
642 [label=<gini = 0.0<br/>samples = 6<br/>value = [6, 0]<br/>class = 0>, fillcolor="#e58139"] ;
638 -> 642 ;
643 [label=<Positioning_Behavioral &le; 12.5<br/>gini = 0.19<br/>samples = 197<br/>value = [176, 21]<br/>class = 0>, fillcolor="#e89051"] ;
635 -> 643 ;
644 [label=<Concentration_Behavioral &le; 9.5<br/>gini = 0.123<br/>samples = 183<br/>value = [171, 12]<br/>class = 0>, fillcolor="#e78a47"] ;
643 -> 644 ;
645 [label=<Communication_Behavioral &le; 3.5<br/>gini = 0.037<br/>samples = 160<br/>value = [157, 3]<br/>class = 0>, fillcolor="#e5833d"] ;
644 -> 645 ;
646 [label=<gini = 0.0<br/>samples = 154<br/>value = [154, 0]<br/>class = 0>, fillcolor="#e58139"] ;
645 -> 646 ;
647 [label=<Pressure_Behavioral &le; 11.5<br/>gini = 0.5<br/>samples = 6<br/>value = [3, 3]<br/>class = 0>, fillcolor="#ffffff"] ;
645 -> 647 ;
648 [label=<gini = 0.0<br/>samples = 3<br/>value = [3, 0]<br/>class = 0>, fillcolor="#e58139"] ;
647 -> 648 ;
649 [label=<gini = 0.0<br/>samples = 3<br/>value = [0, 3]<br/>class = 1>, fillcolor="#399de5"] ;
647 -> 649 ;
650 [label=<Consistency_Behavioral &le; 6.5<br/>gini = 0.476<br/>samples = 23<br/>value = [14, 9]<br/>class = 0>, fillcolor="#f6d2b8"] ;
644 -> 650 ;
651 [label=<gini = 0.0<br/>samples = 9<br/>value = [0, 9]<br/>class = 1>, fillcolor="#399de5"] ;
650 -> 651 ;
652 [label=<gini = 0.0<br/>samples = 14<br/>value = [14, 0]<br/>class = 0>, fillcolor="#e58139"] ;
650 -> 652 ;
653 [label=<Composure_Behavioral &le; 7.5<br/>gini = 0.459<br/>samples = 14<br/>value = [5, 9]<br/>class = 1>, fillcolor="#a7d3f3"] ;
643 -> 653 ;
654 [label=<gini = 0.0<br/>samples = 5<br/>value = [5, 0]<br/>class = 0>, fillcolor="#e58139"] ;
653 -> 654 ;
655 [label=<gini = 0.0<br/>samples = 9<br/>value = [0, 9]<br/>class = 1>, fillcolor="#399de5"] ;
653 -> 655 ;
656 [label=<Consistency_Behavioral &le; 3.5<br/>gini = 0.081<br/>samples = 3478<br/>value = [3330, 148]<br/>class = 0>, fillcolor="#e68742"] ;
538 -> 656 ;
657 [label=<Strength_Technical &le; 8.5<br/>gini = 0.397<br/>samples = 55<br/>value = [40, 15]<br/>class = 0>, fillcolor="#efb083"] ;
656 -> 657 ;
658 [label=<gini = 0.0<br/>samples = 35<br/>value = [35, 0]<br/>class = 0>, fillcolor="#e58139"] ;
657 -> 658 ;
659 [label=<Decisions_Behavioral &le; 11.0<br/>gini = 0.375<br/>samples = 20<br/>value = [5, 15]<br/>class = 1>, fillcolor="#7bbeee"] ;
657 -> 659 ;
660 [label=<gini = 0.0<br/>samples = 4<br/>value = [4, 0]<br/>class = 0>, fillcolor="#e58139"] ;
659 -> 660 ;
661 [label=<Finishing_Technical &le; 3.5<br/>gini = 0.117<br/>samples = 16<br/>value = [1, 15]<br/>class = 1>, fillcolor="#46a4e7"] ;
659 -> 661 ;
662 [label=<gini = 0.0<br/>samples = 15<br/>value = [0, 15]<br/>class = 1>, fillcolor="#399de5"] ;
661 -> 662 ;
663 [label=<gini = 0.0<br/>samples = 1<br/>value = [1, 0]<br/>class = 0>, fillcolor="#e58139"] ;
661 -> 663 ;
664 [label=<Bravery_Behavioral &le; 10.5<br/>gini = 0.075<br/>samples = 3423<br/>value = [3290, 133]<br/>class = 0>, fillcolor="#e68641"] ;
656 -> 664 ;
665 [label=<Finishing_Technical &le; 12.5<br/>gini = 0.067<br/>samples = 3356<br/>value = [3239, 117]<br/>class = 0>, fillcolor="#e68640"] ;
664 -> 665 ;
666 [label=<Loyalty_Behavioral &le; 10.5<br/>gini = 0.059<br/>samples = 3267<br/>value = [3168, 99]<br/>class = 0>, fillcolor="#e6853f"] ;
665 -> 666 ;
667 [label=<Composure_Behavioral &le; 4.5<br/>gini = 0.115<br/>samples = 1207<br/>value = [1133, 74]<br/>class = 0>, fillcolor="#e78946"] ;
666 -> 667 ;
668 [label=<Agility_Technical &le; 11.5<br/>gini = 0.236<br/>samples = 336<br/>value = [290, 46]<br/>class = 0>, fillcolor="#e99558"] ;
667 -> 668 ;
669 [label=<Vision_Behavioral &le; 12.5<br/>gini = 0.084<br/>samples = 182<br/>value = [174, 8]<br/>class = 0>, fillcolor="#e68742"] ;
668 -> 669 ;
670 [label=<TendencyToPunch_Technical &le; 3.5<br/>gini = 0.045<br/>samples = 173<br/>value = [169, 4]<br/>class = 0>, fillcolor="#e6843e"] ;
669 -> 670 ;
671 [label=<gini = 0.0<br/>samples = 159<br/>value = [159, 0]<br/>class = 0>, fillcolor="#e58139"] ;
670 -> 671 ;
672 [label=<FirstTouch_Technical &le; 3.0<br/>gini = 0.408<br/>samples = 14<br/>value = [10, 4]<br/>class = 0>, fillcolor="#efb388"] ;
670 -> 672 ;
673 [label=<gini = 0.0<br/>samples = 4<br/>value = [0, 4]<br/>class = 1>, fillcolor="#399de5"] ;
672 -> 673 ;
674 [label=<gini = 0.0<br/>samples = 10<br/>value = [10, 0]<br/>class = 0>, fillcolor="#e58139"] ;
672 -> 674 ;
675 [label=<Finishing_Technical &le; 3.5<br/>gini = 0.494<br/>samples = 9<br/>value = [5, 4]<br/>class = 0>, fillcolor="#fae6d7"] ;
669 -> 675 ;
676 [label=<gini = 0.0<br/>samples = 4<br/>value = [0, 4]<br/>class = 1>, fillcolor="#399de5"] ;
675 -> 676 ;
677 [label=<gini = 0.0<br/>samples = 5<br/>value = [5, 0]<br/>class = 0>, fillcolor="#e58139"] ;
675 -> 677 ;
678 [label=<NaturalFitness_Technical &le; 9.5<br/>gini = 0.372<br/>samples = 154<br/>value = [116, 38]<br/>class = 0>, fillcolor="#eeaa7a"] ;
668 -> 678 ;
679 [label=<gini = 0.0<br/>samples = 51<br/>value = [51, 0]<br/>class = 0>, fillcolor="#e58139"] ;
678 -> 679 ;
680 [label=<OffTheBall_Technical &le; 5.5<br/>gini = 0.466<br/>samples = 103<br/>value = [65, 38]<br/>class = 0>, fillcolor="#f4cbad"] ;
678 -> 680 ;
681 [label=<TendencyToPunch_Technical &le; 3.5<br/>gini = 0.331<br/>samples = 62<br/>value = [49, 13]<br/>class = 0>, fillcolor="#eca26e"] ;
680 -> 681 ;
682 [label=<OneOnOnes_Technical &le; 3.5<br/>gini = 0.222<br/>samples = 55<br/>value = [48, 7]<br/>class = 0>, fillcolor="#e99356"] ;
681 -> 682 ;
683 [label=<Ambition_Behavioral &le; 13.5<br/>gini = 0.113<br/>samples = 50<br/>value = [47, 3]<br/>class = 0>, fillcolor="#e78946"] ;
682 -> 683 ;
684 [label=<gini = 0.0<br/>samples = 46<br/>value = [46, 0]<br/>class = 0>, fillcolor="#e58139"] ;
683 -> 684 ;
685 [label=<LongShots_Technical &le; 1.5<br/>gini = 0.375<br/>samples = 4<br/>value = [1, 3]<br/>class = 1>, fillcolor="#7bbeee"] ;
683 -> 685 ;
686 [label=<gini = 0.0<br/>samples = 3<br/>value = [0, 3]<br/>class = 1>, fillcolor="#399de5"] ;
685 -> 686 ;
687 [label=<gini = 0.0<br/>samples = 1<br/>value = [1, 0]<br/>class = 0>, fillcolor="#e58139"] ;
685 -> 687 ;
688 [label=<Agility_Technical &le; 12.5<br/>gini = 0.32<br/>samples = 5<br/>value = [1, 4]<br/>class = 1>, fillcolor="#6ab6ec"] ;
682 -> 688 ;
689 [label=<gini = 0.0<br/>samples = 4<br/>value = [0, 4]<br/>class = 1>, fillcolor="#399de5"] ;
688 -> 689 ;
690 [label=<gini = 0.0<br/>samples = 1<br/>value = [1, 0]<br/>class = 0>, fillcolor="#e58139"] ;
688 -> 690 ;
691 [label=<Eccentricity_Behavioral &le; 2.0<br/>gini = 0.245<br/>samples = 7<br/>value = [1, 6]<br/>class = 1>, fillcolor="#5aade9"] ;
681 -> 691 ;
692 [label=<gini = 0.0<br/>samples = 1<br/>value = [1, 0]<br/>class = 0>, fillcolor="#e58139"] ;
691 -> 692 ;
693 [label=<gini = 0.0<br/>samples = 6<br/>value = [0, 6]<br/>class = 1>, fillcolor="#399de5"] ;
691 -> 693 ;
694 [label=<Finishing_Technical &le; 3.5<br/>gini = 0.476<br/>samples = 41<br/>value = [16, 25]<br/>class = 1>, fillcolor="#b8dcf6"] ;
680 -> 694 ;
695 [label=<OneOnOnes_Technical &le; 1.5<br/>gini = 0.091<br/>samples = 21<br/>value = [1, 20]<br/>class = 1>, fillcolor="#43a2e6"] ;
694 -> 695 ;
696 [label=<gini = 0.0<br/>samples = 1<br/>value = [1, 0]<br/>class = 0>, fillcolor="#e58139"] ;
695 -> 696 ;
697 [label=<gini = 0.0<br/>samples = 20<br/>value = [0, 20]<br/>class = 1>, fillcolor="#399de5"] ;
695 -> 697 ;
698 [label=<Leadership_Behavioral &le; 10.5<br/>gini = 0.375<br/>samples = 20<br/>value = [15, 5]<br/>class = 0>, fillcolor="#eeab7b"] ;
694 -> 698 ;
699 [label=<gini = 0.0<br/>samples = 14<br/>value = [14, 0]<br/>class = 0>, fillcolor="#e58139"] ;
698 -> 699 ;
700 [label=<Technique_Technical &le; 7.5<br/>gini = 0.278<br/>samples = 6<br/>value = [1, 5]<br/>class = 1>, fillcolor="#61b1ea"] ;
698 -> 700 ;
701 [label=<gini = 0.0<br/>samples = 5<br/>value = [0, 5]<br/>class = 1>, fillcolor="#399de5"] ;
700 -> 701 ;
702 [label=<gini = 0.0<br/>samples = 1<br/>value = [1, 0]<br/>class = 0>, fillcolor="#e58139"] ;
700 -> 702 ;
703 [label=<Determination_Behavioral &le; 13.5<br/>gini = 0.062<br/>samples = 871<br/>value = [843, 28]<br/>class = 0>, fillcolor="#e68540"] ;
667 -> 703 ;
704 [label=<RightFoot_Technical &le; 6.5<br/>gini = 0.052<br/>samples = 860<br/>value = [837, 23]<br/>class = 0>, fillcolor="#e6843e"] ;
703 -> 704 ;
705 [label=<Passing_Technical &le; 11.0<br/>gini = 0.278<br/>samples = 72<br/>value = [60, 12]<br/>class = 0>, fillcolor="#ea9a61"] ;
704 -> 705 ;
706 [label=<Sportsmanship_Behavioral &le; 9.5<br/>gini = 0.165<br/>samples = 66<br/>value = [60, 6]<br/>class = 0>, fillcolor="#e88e4d"] ;
705 -> 706 ;
707 [label=<Strength_Technical &le; 10.0<br/>gini = 0.444<br/>samples = 9<br/>value = [3, 6]<br/>class = 1>, fillcolor="#9ccef2"] ;
706 -> 707 ;
708 [label=<gini = 0.0<br/>samples = 3<br/>value = [3, 0]<br/>class = 0>, fillcolor="#e58139"] ;
707 -> 708 ;
709 [label=<gini = 0.0<br/>samples = 6<br/>value = [0, 6]<br/>class = 1>, fillcolor="#399de5"] ;
707 -> 709 ;
710 [label=<gini = 0.0<br/>samples = 57<br/>value = [57, 0]<br/>class = 0>, fillcolor="#e58139"] ;
706 -> 710 ;
711 [label=<gini = 0.0<br/>samples = 6<br/>value = [0, 6]<br/>class = 1>, fillcolor="#399de5"] ;
705 -> 711 ;
712 [label=<Consistency_Behavioral &le; 4.5<br/>gini = 0.028<br/>samples = 788<br/>value = [777, 11]<br/>class = 0>, fillcolor="#e5833c"] ;
704 -> 712 ;
713 [label=<Ambition_Behavioral &le; 13.5<br/>gini = 0.375<br/>samples = 12<br/>value = [9, 3]<br/>class = 0>, fillcolor="#eeab7b"] ;
712 -> 713 ;
714 [label=<gini = 0.0<br/>samples = 9<br/>value = [9, 0]<br/>class = 0>, fillcolor="#e58139"] ;
713 -> 714 ;
715 [label=<gini = 0.0<br/>samples = 3<br/>value = [0, 3]<br/>class = 1>, fillcolor="#399de5"] ;
713 -> 715 ;
716 [label=<Strength_Technical &le; 3.5<br/>gini = 0.02<br/>samples = 776<br/>value = [768, 8]<br/>class = 0>, fillcolor="#e5823b"] ;
712 -> 716 ;
717 [label=<Aggression_Behavioral &le; 4.5<br/>gini = 0.264<br/>samples = 32<br/>value = [27, 5]<br/>class = 0>, fillcolor="#ea985e"] ;
716 -> 717 ;
718 [label=<gini = 0.0<br/>samples = 5<br/>value = [0, 5]<br/>class = 1>, fillcolor="#399de5"] ;
717 -> 718 ;
719 [label=<gini = 0.0<br/>samples = 27<br/>value = [27, 0]<br/>class = 0>, fillcolor="#e58139"] ;
717 -> 719 ;
720 [label=<Pressure_Behavioral &le; 8.5<br/>gini = 0.008<br/>samples = 744<br/>value = [741, 3]<br/>class = 0>, fillcolor="#e5823a"] ;
716 -> 720 ;
721 [label=<Dirtiness_Behavioral &le; 5.5<br/>gini = 0.139<br/>samples = 40<br/>value = [37, 3]<br/>class = 0>, fillcolor="#e78b49"] ;
720 -> 721 ;
722 [label=<Corners_Technical &le; 5.5<br/>gini = 0.5<br/>samples = 6<br/>value = [3, 3]<br/>class = 0>, fillcolor="#ffffff"] ;
721 -> 722 ;
723 [label=<gini = 0.0<br/>samples = 3<br/>value = [3, 0]<br/>class = 0>, fillcolor="#e58139"] ;
722 -> 723 ;
724 [label=<gini = 0.0<br/>samples = 3<br/>value = [0, 3]<br/>class = 1>, fillcolor="#399de5"] ;
722 -> 724 ;
725 [label=<gini = 0.0<br/>samples = 34<br/>value = [34, 0]<br/>class = 0>, fillcolor="#e58139"] ;
721 -> 725 ;
726 [label=<gini = 0.0<br/>samples = 704<br/>value = [704, 0]<br/>class = 0>, fillcolor="#e58139"] ;
720 -> 726 ;
727 [label=<Kicking_Technical &le; 3.5<br/>gini = 0.496<br/>samples = 11<br/>value = [6, 5]<br/>class = 0>, fillcolor="#fbeade"] ;
703 -> 727 ;
728 [label=<gini = 0.0<br/>samples = 6<br/>value = [6, 0]<br/>class = 0>, fillcolor="#e58139"] ;
727 -> 728 ;
729 [label=<gini = 0.0<br/>samples = 5<br/>value = [0, 5]<br/>class = 1>, fillcolor="#399de5"] ;
727 -> 729 ;
730 [label=<Freekicks_Technical &le; 10.5<br/>gini = 0.024<br/>samples = 2060<br/>value = [2035, 25]<br/>class = 0>, fillcolor="#e5833b"] ;
666 -> 730 ;
731 [label=<Aggression_Behavioral &le; 1.5<br/>gini = 0.018<br/>samples = 2048<br/>value = [2029, 19]<br/>class = 0>, fillcolor="#e5823b"] ;
730 -> 731 ;
732 [label=<Adaptability_Behavioral &le; 17.0<br/>gini = 0.48<br/>samples = 10<br/>value = [6, 4]<br/>class = 0>, fillcolor="#f6d5bd"] ;
731 -> 732 ;
733 [label=<gini = 0.0<br/>samples = 6<br/>value = [6, 0]<br/>class = 0>, fillcolor="#e58139"] ;
732 -> 733 ;
734 [label=<gini = 0.0<br/>samples = 4<br/>value = [0, 4]<br/>class = 1>, fillcolor="#399de5"] ;
732 -> 734 ;
735 [label=<Teamwork_Behavioral &le; 2.5<br/>gini = 0.015<br/>samples = 2038<br/>value = [2023, 15]<br/>class = 0>, fillcolor="#e5823a"] ;
731 -> 735 ;
736 [label=<Agility_Technical &le; 7.5<br/>gini = 0.219<br/>samples = 24<br/>value = [21, 3]<br/>class = 0>, fillcolor="#e99355"] ;
735 -> 736 ;
737 [label=<gini = 0.0<br/>samples = 3<br/>value = [0, 3]<br/>class = 1>, fillcolor="#399de5"] ;
736 -> 737 ;
738 [label=<gini = 0.0<br/>samples = 21<br/>value = [21, 0]<br/>class = 0>, fillcolor="#e58139"] ;
736 -> 738 ;
739 [label=<Ambition_Behavioral &le; 8.5<br/>gini = 0.012<br/>samples = 2014<br/>value = [2002, 12]<br/>class = 0>, fillcolor="#e5823a"] ;
735 -> 739 ;
740 [label=<Communication_Behavioral &le; 3.5<br/>gini = 0.101<br/>samples = 94<br/>value = [89, 5]<br/>class = 0>, fillcolor="#e68844"] ;
739 -> 740 ;
741 [label=<gini = 0.0<br/>samples = 87<br/>value = [87, 0]<br/>class = 0>, fillcolor="#e58139"] ;
740 -> 741 ;
742 [label=<Longthrows_Technical &le; 3.5<br/>gini = 0.408<br/>samples = 7<br/>value = [2, 5]<br/>class = 1>, fillcolor="#88c4ef"] ;
740 -> 742 ;
743 [label=<gini = 0.0<br/>samples = 5<br/>value = [0, 5]<br/>class = 1>, fillcolor="#399de5"] ;
742 -> 743 ;
744 [label=<gini = 0.0<br/>samples = 2<br/>value = [2, 0]<br/>class = 0>, fillcolor="#e58139"] ;
742 -> 744 ;
745 [label=<ImportantMatches_Technical &le; 1.5<br/>gini = 0.007<br/>samples = 1920<br/>value = [1913, 7]<br/>class = 0>, fillcolor="#e5813a"] ;
739 -> 745 ;
746 [label=<Sportsmanship_Behavioral &le; 9.5<br/>gini = 0.067<br/>samples = 115<br/>value = [111, 4]<br/>class = 0>, fillcolor="#e68640"] ;
745 -> 746 ;
747 [label=<Crossing_Technical &le; 8.5<br/>gini = 0.391<br/>samples = 15<br/>value = [11, 4]<br/>class = 0>, fillcolor="#eeaf81"] ;
746 -> 747 ;
748 [label=<gini = 0.0<br/>samples = 11<br/>value = [11, 0]<br/>class = 0>, fillcolor="#e58139"] ;
747 -> 748 ;
749 [label=<gini = 0.0<br/>samples = 4<br/>value = [0, 4]<br/>class = 1>, fillcolor="#399de5"] ;
747 -> 749 ;
750 [label=<gini = 0.0<br/>samples = 100<br/>value = [100, 0]<br/>class = 0>, fillcolor="#e58139"] ;
746 -> 750 ;
751 [label=<Technique_Technical &le; 1.5<br/>gini = 0.003<br/>samples = 1805<br/>value = [1802, 3]<br/>class = 0>, fillcolor="#e58139"] ;
745 -> 751 ;
752 [label=<Concentration_Behavioral &le; 8.5<br/>gini = 0.056<br/>samples = 105<br/>value = [102, 3]<br/>class = 0>, fillcolor="#e6853f"] ;
751 -> 752 ;
753 [label=<gini = 0.0<br/>samples = 92<br/>value = [92, 0]<br/>class = 0>, fillcolor="#e58139"] ;
752 -> 753 ;
754 [label=<Marking_Technical &le; 10.5<br/>gini = 0.355<br/>samples = 13<br/>value = [10, 3]<br/>class = 0>, fillcolor="#eda774"] ;
752 -> 754 ;
755 [label=<gini = 0.0<br/>samples = 3<br/>value = [0, 3]<br/>class = 1>, fillcolor="#399de5"] ;
754 -> 755 ;
756 [label=<gini = 0.0<br/>samples = 10<br/>value = [10, 0]<br/>class = 0>, fillcolor="#e58139"] ;
754 -> 756 ;
757 [label=<gini = 0.0<br/>samples = 1700<br/>value = [1700, 0]<br/>class = 0>, fillcolor="#e58139"] ;
751 -> 757 ;
758 [label=<Longthrows_Technical &le; 4.5<br/>gini = 0.5<br/>samples = 12<br/>value = [6, 6]<br/>class = 0>, fillcolor="#ffffff"] ;
730 -> 758 ;
759 [label=<gini = 0.0<br/>samples = 6<br/>value = [6, 0]<br/>class = 0>, fillcolor="#e58139"] ;
758 -> 759 ;
760 [label=<gini = 0.0<br/>samples = 6<br/>value = [0, 6]<br/>class = 1>, fillcolor="#399de5"] ;
758 -> 760 ;
761 [label=<LeftFoot_Technical &le; 8.5<br/>gini = 0.323<br/>samples = 89<br/>value = [71, 18]<br/>class = 0>, fillcolor="#eca16b"] ;
665 -> 761 ;
762 [label=<gini = 0.0<br/>samples = 54<br/>value = [54, 0]<br/>class = 0>, fillcolor="#e58139"] ;
761 -> 762 ;
763 [label=<Kicking_Technical &le; 1.5<br/>gini = 0.5<br/>samples = 35<br/>value = [17, 18]<br/>class = 1>, fillcolor="#f4fafe"] ;
761 -> 763 ;
764 [label=<FirstTouch_Technical &le; 9.5<br/>gini = 0.298<br/>samples = 22<br/>value = [4, 18]<br/>class = 1>, fillcolor="#65b3eb"] ;
763 -> 764 ;
